1.235694
-0.697489
-0.427904
3.816346
-1.116482
-2.656881
1.445779
-0.155688
-1.333413
1.065202
-0.789603
-0.358800
3.005073
-0.902103
-2.052740
0.711993
-0.287625
-0.229524
1.040359
-1.024502
0.059933
3.112026
-1.073050
-1.944378
0.436213
-0.116272
-0.362478
0.784477
-0.979052
-1.069956
0.358715
0.337675
-1.174177
0.398548
0.144098
-1.110015
-1.237711
-1.017331
-0.748014
-2.784740
-0.173270
-0.893522
-1.817456
-1.492243
-1.435754
1.076356
1.231609
1.683847
-0.379587
3.922821
2.752175
0.725054
2.272788
2.493335
0.197819
0.416041
0.916567
-0.554764
0.110725
1.326949
0.328739
-1.419833
0.612115
0.520474
0.570966
1.086999
1.021122
0.429526
0.887668
1.312007
0.216682
1.285069
-0.011314
-2.313734
-1.650812
-0.586568
-2.527974
-1.728236
0.456616
-2.572388
-1.094917
1.510195
1.111551
0.786932
0.696173
1.483087
1.510608
-0.284241
0.606469
-0.077468
1.263226
-0.220831
-0.518007
-0.277661
-0.560187
0.010531
-0.805558
-0.255348
-0.256397
1.354827
-0.874212
-1.087710
-0.295937
-0.994459
-0.625261
-0.203695
-0.635232
-1.194765
-0.668855
-0.178842
0.262183
-0.621126
-0.520361
-0.565457
0.517825
0.035197
0.628433
-0.091565
-0.831716
-0.300677
-0.251970
-0.232332
-0.604547
1.487217
0.478314
0.407148
-0.899363
-0.561071
-0.584698
0.021769
-0.616500
-0.582760
0.730179
0.501870
0.297317
1.605824
-0.625555
1.390041
-0.466595
-2.007322
0.610089
-0.426065
-1.369121
-0.525367
-0.670194
-1.228877
0.579476
-1.000396
-1.886313
0.192533
0.283772
-0.291352
0.124711
0.427890
-0.264996
0.109329
-0.145852
-0.114424
0.084864
-0.310065
0.120010
-0.709865
-4.433032
-2.248587
-0.776095
2.991994
1.788668
0.027329
3.003888
1.018278
0.275569
-3.477764
-0.731105
0.835250
1.925503
1.080166
-0.420638
0.687256
-0.595808
0.190264
-4.081041
-1.960375
0.696817
1.509163
1.398158
-0.555870
1.935152
0.297269
-0.302527
-0.501303
0.134421
0.941259
-1.695790
-0.372497
2.018743
-1.729396
1.044421
0.584232
-1.339914
0.228594
1.051012
-2.165430
0.096144
2.180798
-1.654006
0.906401
0.509588
-1.318617
-0.031037
0.661951
-2.210496
0.194960
1.839186
-1.719087
1.457581
0.486937
-1.314734
-1.630610
-1.622586
-3.784297
-5.991910
-2.044131
-2.410778
-4.963219
-1.762221
0.422898
1.523667
0.432863
-0.103194
-0.015299
1.147388
0.514102
-0.341312
1.101464
1.159011
3.023096
-0.044389
3.397180
4.719126
1.547911
1.815913
3.440901
1.257337
-0.500805
0.260876
0.529215
0.797557
0.369675
0.556841
0.281371
1.150009
0.868019
-0.057711
-0.084763
-1.369393
0.271926
0.031084
0.384782
-0.113319
-0.993061
-0.264012
-0.507116
0.451385
0.329432
-1.384913
0.847901
-1.080929
1.389112
0.327400
1.100503
-4.762668
1.374433
-2.839053
-2.368405
-1.129193
2.113491
1.870250
1.445330
3.135782
-0.012977
5.701551
0.390976
-1.573122
-2.931398
1.243846
-0.313028
-3.195384
0.327032
3.621892
6.074684
-0.835953
1.347085
-3.199038
-0.476887
0.973171
-3.860865
-2.968632
3.356676
1.869630
1.883793
1.597452
-0.371205
-0.098150
-3.914866
-3.543834
-0.592893
2.405923
0.436686
0.051437
1.776072
-0.718471
-0.245384
-2.195184
-2.403593
-0.174206
0.365700
0.114268
-0.408885
1.224784
0.266922
-0.924862
-0.744774
-0.520531
0.461303
0.409233
3.334244
1.666688
1.466726
4.396595
2.880417
-0.573962
1.960107
0.698795
-1.222463
-2.662478
-1.826047
-0.649101
-2.311815
-1.560089
0.255728
-0.156858
-0.364315
0.545703
-1.393435
-0.245341
-1.108104
-2.855845
-0.720876
0.815566
-0.192909
-0.320913
1.270037
2.841122
-0.713408
-0.460487
-2.038941
-1.568909
0.259188
-1.777125
-1.108458
1.700412
3.691379
0.617882
1.092361
0.568510
1.622338
1.554936
0.927409
1.330337
-2.537781
0.885704
-0.149570
-1.889380
-3.370128
-0.388590
-1.592278
-1.582991
-0.098665
0.478152
-4.064113
0.671980
-0.640607
0.342694
0.214509
0.101944
-1.387575
0.160005
0.805275
-2.943674
0.319492
0.388681
1.743839
1.473115
0.514111
-0.644932
0.041799
0.668534
-2.078355
0.281472
0.820993
2.296098
1.088587
-0.061333
0.384399
0.389511
-0.525781
-0.578537
-1.136001
-0.048399
0.141721
-0.172161
0.387664
0.819022
-0.020252
0.127415
0.205115
1.172840
1.220278
0.148568
1.584552
-0.192581
0.410008
0.555557
0.637141
0.199426
1.696060
-0.988783
-0.556458
0.846777
-0.703368
-1.851415
-1.188380
