-0.013304
-0.073579
0.025935
0.267737
-0.126002
-0.130334
0.031487
-0.111647
-0.305736
0.077649
-0.051133
-0.124925
0.134425
0.134351
0.053860
0.161763
0.078707
-0.050631
-0.167290
-0.039524
-0.003297
-0.170355
-0.149589
-0.093746
-0.144107
0.185816
-0.170877
-0.028609
0.062732
0.019559
0.092580
0.115147
-0.056593
0.103858
-0.224468
0.131787
0.202606
0.096660
-0.250342
-0.188121
0.277622
0.170987
0.069794
0.022243
0.376364
0.028940
0.233968
-0.244220
-0.016700
0.259490
-0.105828
0.086635
0.524727
-0.273292
-0.121104
-0.167838
-0.002138
0.048760
-0.064248
0.104164
0.396596
0.000240
-0.230529
0.350795
-0.143266
-0.219939
0.059015
0.051007
0.029842
0.183023
-0.174363
0.118513
0.178069
-0.090802
-0.064650
0.063163
0.015501
0.029220
-0.112829
0.110397
-0.187765
-0.154898
-0.074626
0.164562
-0.070957
0.222959
-0.012421
0.166783
0.092228
-0.132864
0.120356
-0.036968
0.395608
-0.282623
-0.176829
0.263815
-0.125190
0.094098
0.142569
0.012830
0.071217
-0.129872
0.357656
-0.014929
-0.524766
-0.313097
-0.061958
0.118341
-0.054536
-0.491960
-0.175282
-0.012038
0.061975
-0.310613
0.149654
-0.000017
-0.121776
0.081962
-0.025856
0.165339
-0.153564
-0.299399
-0.104268
-0.090541
0.215849
-0.210678
-0.065276
-0.053775
0.710581
0.067775
-0.181105
-0.188325
-0.044730
-0.097678
0.139748
-0.222122
-0.076818
0.020694
-0.041405
-0.337333
0.356315
-0.085122
-0.274363
0.033641
-0.124509
0.314234
0.125997
-0.069360
0.464256
0.472244
-0.096128
-0.381942
-0.075166
-0.096061
0.144731
-0.195043
0.194938
0.063422
0.155429
-0.117948
-0.089627
0.112757
-0.082212
0.060656
-0.082621
0.078761
0.190869
-0.304574
-0.004637
-0.146310
0.149575
0.050357
-0.096183
-0.170761
-0.153146
0.230186
0.354104
0.046423
0.042681
0.047401
-0.111760
0.314424
-0.121510
-0.121579
-0.373774
0.048718
0.155036
-0.097618
-0.302679
-0.309968
-0.380824
-0.049066
0.046515
0.051463
-0.225223
-0.159534
-0.104236
0.375080
-0.204199
-0.024460
0.077323
-0.286871
0.266169
0.168760
-0.024287
0.120149
-0.042710
0.056884
0.385982
-0.181033
-0.115285
0.047022
-0.069675
-0.118818
0.501594
0.093047
0.233872
0.029668
-0.181601
-0.140599
-0.117698
-0.073922
-0.234466
-0.140983
0.045455
-0.076895
-0.209703
-0.067722
-0.306982
0.033282
-0.080544
-0.027805
0.061334
-0.117119
0.088529
0.318962
0.158436
-0.084437
-0.054599
-0.054643
-0.272679
0.143318
0.031647
0.036858
-0.056733
0.165394
0.255375
-0.252780
-0.004299
0.060799
-0.016097
-0.339324
0.076436
0.244802
0.033427
0.254883
-0.098587
-0.002568
-0.135913
-0.003954
0.178804
-0.043666
0.049034
0.019865
0.038125
-0.042258
0.000008
-0.026338
-0.050031
0.085811
0.034868
-0.084300
-0.076035
-0.054585
-0.108313
-0.107170
-0.089092
-0.046688
-0.042537
-0.018971
-0.092499
-0.106449
0.208911
-0.082655
-0.086361
-0.135920
0.008633
-0.006923
0.016353
0.060350
-0.005277
-0.068514
-0.015777
-0.185735
-0.147498
0.052837
0.027112
0.040814
-0.014343
-0.000576
0.002796
-0.020952
0.133030
0.273461
-0.109363
-0.144792
-0.006040
0.004367
-0.102235
-0.101063
-0.008983
-0.037489
-0.030797
0.018014
0.140860
0.027995
-0.089727
-0.018550
0.018789
-0.143228
-0.025884
-0.027301
-0.003800
0.496913
-0.042853
0.016582
-0.001800
-0.138729
-0.170201
0.042265
0.111177
0.074215
0.008151
0.034853
-0.053634
-0.039445
0.073206
0.074194
0.004368
-0.048577
-0.122083
0.054372
-0.032849
-0.173432
0.125364
-0.066635
-0.159222
-0.134915
-0.042508
-0.010388
-0.176733
0.197202
0.167159
-0.067485
-0.080940
0.055847
-0.191784
0.060231
-0.047918
-0.151684
-0.114611
-0.003547
-0.011394
-0.063751
0.071205
-0.173481
0.143395
-0.047555
-0.010597
0.003364
0.059523
-0.052050
-0.078545
0.030662
-0.015767
-0.080725
0.028946
-0.036748
-0.114179
-0.052733
-0.034201
0.029297
0.461783
0.055189
0.040339
-0.200350
0.020997
-0.047917
0.025366
-0.017366
-0.077440
-0.048780
-0.016360
0.002435
0.009084
0.016160
-0.013027
-0.098016
-0.049204
-0.016070
-0.025503
-0.095498
0.009299
-0.022579
0.051521
0.034483
-0.005414
0.019209
0.011407
-0.004489
-0.102024
-0.136074
0.039055
0.040780
-0.031335
0.003251
-0.006127
-0.045072
-0.034033
-0.126255
0.068485
0.175759
-0.009455
0.089053
0.026213
-0.190037
-0.114828
0.095034
0.005396
0.302306
-0.088270
0.184478
0.001186
-0.165251
0.000626
0.148045
0.116228
-0.327547
-0.013388
-0.094886
0.064437
-0.085157
-0.010247
0.072688
-0.025658
0.028040
-0.043294
0.020705
-0.086980
0.032460
-0.065942
-0.050103
0.002535
0.015441
-0.070181
0.023434
-0.088783
-0.050823
-0.043164
0.042126
0.025194
-0.011973
0.043008
0.062929
0.025328
-0.031864
0.116632
-0.031786
-0.140707
-0.033229
-0.026997
-0.010595
0.014377
-0.106196
0.212183
-0.054044
-0.042001
-0.070781
-0.045865
-0.043262
-0.003642
-0.039727
-0.073542
0.260716
-0.014479
-0.031473
-0.042802
-0.256926
-0.004679
-0.046207
-0.104358
-0.110094
-0.318951
-0.257231
0.076135
0.068482
-0.048426
0.000585
0.040859
0.059326
-0.034834
-0.092874
-0.059179
-0.088964
0.050518
0.068268
-0.055942
-0.100524
0.048836
-0.120226
-0.117980
0.048143
0.036942
-0.140752
0.001319
-0.002924
0.101624
0.040092
0.047965
0.114934
-0.110997
-0.341734
0.046776
-0.100143
-0.091949
0.098298
-0.119608
-0.032510
0.031919
0.171060
-0.065865
-0.111048
-0.091124
-0.062012
-0.048674
0.126400
-0.051206
-0.076036
-0.078776
-0.041065
0.036981
-0.072026
0.041534
-0.065021
-0.043159
0.119569
-0.116402
-0.020054
0.038648
-0.134513
-0.091439
0.020330
-0.110377
-0.052303
0.060476
0.057884
0.053766
0.006003
-0.023363
0.032033
0.097546
0.123019
0.084577
0.109156
-0.079834
0.034139
0.081047
-0.017940
0.058989
-0.176307
-0.058843
-0.069088
-0.072227
-0.101559
0.084099
0.161382
-0.084650
-0.172212
-0.119856
-0.029110
-0.139475
-0.002117
-0.075622
-0.080362
0.077575
0.017831
-0.077637
-0.003655
0.034204
0.123074
-0.102564
-0.002917
0.126803
0.074220
-0.030849
-0.066348
0.046613
-0.010148
-0.043727
-0.057163
-0.002825
0.100901
0.034088
0.018208
0.051419
0.020798
-0.086987
0.113879
0.053258
-0.084070
-0.114087
0.088914
-0.088887
-0.043535
0.000555
0.132556
-0.054246
-0.106301
-0.156460
-0.013775
-0.038650
-0.111726
0.135390
0.047610
0.084655
-0.023135
-0.014953
-0.103114
0.029401
-0.091106
0.024704
0.008349
0.028559
0.039660
-0.084495
0.007809
-0.118625
-0.077933
-0.099831
0.087627
-0.015423
-0.043864
0.006844
0.050060
0.067800
-0.054988
-0.170466
-0.027926
0.078990
-0.049228
-0.011765
-0.026019
-0.006921
-0.003199
0.034110
0.059687
0.065999
0.089525
-0.067969
-0.046180
-0.079923
-0.085112
0.100737
0.016486
0.030197
0.039431
-0.027732
0.061955
0.066811
-0.013040
0.027531
-0.096854
-0.093102
-0.050415
0.042920
0.115925
-0.001495
-0.170960
0.064507
-0.030813
0.027329
-0.146483
-0.027779
-0.103285
0.029935
-0.132772
0.023257
-0.003973
0.102039
0.072850
-0.045506
-0.064394
0.042489
-0.137435
0.073846
0.049995
-0.079909
-0.181501
-0.111799
-0.024507
0.045492
0.066141
-0.036594
0.084126
-0.085630
-0.018294
-0.017339
0.065733
-0.047989
-0.002326
-0.081697
-0.028930
0.125788
0.034138
-0.059192
-0.056368
-0.026696
-0.037495
0.058674
-0.059027
-0.126861
-0.019292
-0.038350
-0.085169
-0.043486
0.023369
0.090245
0.102940
0.077950
-0.059910
-0.127322
0.035917
-0.128706
-0.114112
-0.011165
-0.083780
-0.017697
-0.020440
-0.078936
-0.131538
0.049723
-0.075551
0.010534
0.000359
0.082821
0.019388
-0.037664
0.025412
0.138613
-0.066012
-0.081465
-0.038059
0.053828
-0.006869
0.003377
-0.018944
-0.150357
-0.043553
0.081144
0.043480
0.037573
-0.022661
-0.114336
-0.008031
0.096596
0.104553
0.135684
-0.075732
0.189183
-0.110201
-0.046670
-0.028974
0.103068
-0.010992
0.001684
0.068585
0.083205
-0.250866
0.166987
0.022185
0.103862
0.089120
0.094003
-0.041233
-0.023387
0.048903
-0.053311
0.256734
0.099843
0.010163
-0.061563
-0.022377
-0.015906
0.060255
0.079370
0.178866
0.000209
-0.050416
-0.174844
0.030359
0.217210
-0.062739
0.085163
-0.144500
0.092706
-0.317031
-0.264476
-0.037855
-0.068228
0.054013
-0.078851
0.058601
0.041709
0.033035
0.014076
-0.101151
0.088796
0.002058
0.033438
-0.026484
-0.033455
0.389200
-0.092775
0.066309
-0.042429
0.041398
-0.075461
-0.061704
-0.038576
-0.081700
-0.012641
0.015483
-0.014618
0.066355
-0.017494
0.402322
0.023412
-0.014292
-0.217947
-0.018883
-0.112850
-0.168799
-0.154638
-0.061296
-0.067407
0.008808
-0.023538
0.061216
-0.066217
-0.061281
0.004751
-0.231060
-0.117879
-0.070795
0.119420
0.024528
0.105446
-0.026850
-0.050566
-0.294508
0.093235
-0.161344
-0.099763
0.305111
0.149002
0.009385
-0.037430
0.061904
0.056664
0.254988
-0.190204
0.029238
-0.132111
-0.101209
-0.032034
-0.106717
0.029372
-0.095442
0.348610
-0.092338
0.054646
0.037899
-0.068494
0.071582
-0.073705
-0.084809
-0.070024
-0.078149
-0.031303
0.086891
-0.099706
0.027606
-0.002418
0.076065
0.438337
0.157119
-0.008823
-0.367519
-0.098199
-0.143645
0.017349
-0.112647
-0.043109
-0.042452
0.048206
0.066797
0.007777
0.080183
0.011725
-0.015166
0.023913
0.059829
-0.071824
-0.061315
-0.065566
0.056740
-0.207232
0.052656
0.064957
-0.001948
-0.082850
-0.097632
-0.171960
-0.076278
0.025068
-0.049177
-0.044594
-0.057117
0.054419
0.016952
0.080840
-0.009141
-0.205181
-0.022388
-0.016521
-0.033415
-0.069275
0.033149
0.027585
0.335918
-0.049736
-0.018380
0.200163
0.028094
-0.039297
0.043813
-0.110152
0.038039
-0.052847
-0.029796
0.041640
-0.200251
-0.136233
0.154225
0.024220
0.096984
0.125151
0.012343
-0.118357
0.045861
-0.130722
-0.055662
-0.004043
-0.187272
0.025704
0.018234
-0.089063
-0.074199
0.085256
0.030314
-0.033495
-0.058772
0.012612
-0.015065
-0.069631
-0.129889
0.031829
0.074577
0.019725
-0.049751
0.068843
-0.155341
-0.036588
-0.168201
0.001313
0.044844
0.113057
-0.115786
-0.073431
-0.037461
0.056386
-0.144528
-0.035975
0.003795
-0.030499
-0.035765
0.032346
-0.091445
-0.105449
-0.322463
0.058408
-0.012819
0.067002
0.049732
-0.040848
-0.123480
0.008057
-0.000570
-0.116922
-0.007454
0.112212
0.047760
-0.011856
0.045613
-0.105402
0.091452
0.039298
0.052454
-0.041596
0.016525
0.059516
-0.124363
0.092416
-0.069189
-0.143000
-0.117027
-0.180206
0.353282
-0.139253
-0.068323
-0.119738
-0.053791
-0.409762
0.248658
-0.104505
0.135874
-0.074960
-0.115746
-0.155525
-0.146360
-0.018657
-0.090839
0.045456
0.261138
-0.091625
0.213467
0.037463
-0.050465
-0.093982
0.212378
-0.088664
0.094854
-0.062133
-0.170037
-0.066733
-0.167764
-0.146349
-0.183682
-0.167644
-0.080430
0.345425
-0.125801
-0.050089
0.080774
0.217136
-0.350787
-0.143399
-0.102542
0.304782
0.144957
0.045847
-0.186476
0.218507
-0.207528
0.002338
-0.145056
-0.406678
0.072887
0.238337
0.286598
0.082572
0.229695
-0.037676
-0.003754
0.378875
0.086377
-0.018563
0.140578
-0.053959
0.006154
-0.136539
-0.120305
-0.259574
0.118275
-0.253219
0.281991
-0.283895
-0.171604
-0.245117
-0.093125
-0.182555
0.070307
-0.134424
-0.365614
-0.174047
-0.222605
-0.196639
0.203559
0.094130
0.236929
0.186371
-0.268010
-0.006956
-0.183551
-0.068976
0.122625
0.346804
-0.181533
-0.427802
0.113672
-0.215799
0.297998
-0.186136
-0.227227
0.254229
0.170604
0.365124
-0.072290
-0.099819
0.024606
-0.074087
-0.192223
-0.189932
-0.123575
0.001163
-0.186419
-0.139083
0.463692
0.031916
-0.073502
-0.010803
0.144639
0.371015
-0.051831
0.322668
-0.002127
-0.180216
0.126652
-0.287325
-0.168090
-0.104432
0.047403
0.105047
0.255831
-0.219732
-0.162872
-0.051301
-0.405401
-0.276875
0.112656
-0.179213
-0.090317
0.261057
0.312046
0.192307
0.096186
-0.103111
-0.037125
-0.165458
0.021855
-0.135320
-0.049049
-0.068040
-0.345301
-0.213863
-0.053551
-0.087601
0.123484
0.125504
0.021819
0.059043
0.386763
-0.041630
0.055228
0.064283
0.028518
0.219906
0.007670
-0.230654
0.063119
0.050986
-0.173574
-0.044370
-0.184450
-0.178965
-0.150195
-0.128300
-0.144784
0.264988
0.111585
0.066365
0.104086
-0.102485
0.126432
0.553967
0.374742
0.121862
0.109468
-0.110063
-0.091969
0.285153
-0.029982
0.477239
-0.049043
-0.086479
-0.039100
-0.057526
0.567721
-0.035565
-0.099942
0.110308
0.255200
-0.183358
0.116411
-0.151049
-0.190654
-0.315178
-0.275118
-0.085746
-0.031686
-0.187784
-0.106268
0.414380
0.065353
0.093171
-0.245759
0.243955
-0.368540
-0.110124
-0.006746
-0.078987
0.051817
-0.111593
0.207516
-0.095457
0.070082
0.006236
0.065724
-0.127771
-0.032198
0.063536
-0.260676
0.151541
0.420529
0.031086
0.028402
-0.119784
-0.045012
0.086688
-0.055416
0.182894
0.064671
-0.052769
-0.342126
-0.582895
0.067238
-0.149204
0.123436
-0.031046
-0.190385
-0.085628
0.096018
-0.173599
0.050731
0.201850
-0.535324
-0.071361
-0.103283
-0.199907
-0.010752
0.015139
-0.064685
0.033932
-0.201319
-0.134815
-0.008998
-0.231946
-0.051547
-0.201239
-0.348235
-0.010548
-0.198767
0.080049
-0.023588
-0.061672
0.030305
-0.154202
0.104694
-0.071446
-0.020650
-0.040262
-0.068052
-0.013751
-0.025294
-0.162034
-0.109716
0.082871
-0.023086
0.123896
-0.040346
-0.001342
-0.064215
0.021421
0.045514
0.024808
-0.019437
-0.051700
-0.049875
0.137759
0.024847
0.132436
0.079787
-0.103206
0.031969
0.089794
-0.033765
-0.158046
-0.038699
-0.009357
0.011366
-0.001876
0.061786
0.063897
0.057385
-0.015187
-0.175491
-0.086328
-0.128273
-0.055391
-0.017864
-0.002315
0.007596
-0.047696
0.006153
0.026408
0.031238
-0.111023
0.127432
-0.048408
0.133405
-0.025893
-0.091723
0.123566
-0.040116
-0.130564
-0.030709
-0.087227
0.008684
0.134902
0.042944
0.048875
-0.035490
0.013823
-0.181761
-0.109772
-0.003783
0.054257
0.014036
0.107212
0.008784
-0.016242
0.121862
0.116313
0.094967
-0.025325
-0.072041
0.100205
0.043530
-0.179751
-0.020810
0.000894
0.083498
-0.070583
-0.095746
-0.068229
-0.061506
-0.065417
0.050335
-0.076621
-0.142190
0.112592
-0.158960
-0.022166
-0.132264
-0.043993
-0.073992
-0.007058
-0.094387
-0.019853
-0.091595
-0.007746
-0.049675
-0.149293
0.079815
0.023258
-0.006909
0.058474
0.136658
0.029794
-0.015659
-0.002425
-0.140802
-0.103152
-0.126436
-0.108658
-0.154653
-0.064488
-0.134777
-0.205011
-0.019950
-0.083772
-0.012128
0.111994
0.069191
-0.075693
-0.112141
0.003102
0.108642
-0.044571
0.018183
-0.083177
0.077856
-0.080908
-0.106570
0.006411
0.016408
-0.056487
0.032080
0.004367
-0.144899
0.013946
0.082029
0.009402
-0.125307
-0.045970
-0.088325
0.014337
0.049983
-0.070899
-0.194642
-0.086198
-0.014457
-0.095145
-0.088640
-0.069404
0.055211
-0.055193
-0.095938
0.098995
0.108806
-0.098897
-0.038764
0.245839
-0.068863
0.013466
0.002353
-0.197008
0.084820
0.019189
0.154332
0.041772
-0.013769
-0.088781
-0.054242
-0.019467
-0.120093
0.162892
-0.168492
0.101261
0.052402
0.058085
0.116107
0.000018
-0.136247
-0.144868
-0.075191
-0.103056
0.008095
-0.147465
-0.038363
0.049180
0.000638
0.025811
-0.265606
0.097662
-0.020121
0.053882
0.135393
-0.107484
-0.023862
0.031887
-0.180400
-0.127670
0.009294
-0.101220
0.001290
-0.049264
-0.080382
-0.040263
-0.030247
-0.105633
-0.082587
0.189081
0.009359
-0.043815
-0.160948
-0.014759
-0.093281
0.061265
-0.234586
-0.019949
-0.109548
0.026944
-0.054365
-0.099026
-0.031314
-0.076941
-0.062261
0.012890
-0.049794
0.033629
-0.142835
0.091491
0.124211
0.118810
0.071470
-0.051680
-0.015669
-0.064195
-0.112332
-0.105509
0.066929
-0.058719
-0.073904
-0.230260
-0.129463
-0.097076
-0.142003
0.008946
-0.112293
-0.146840
-0.078366
-0.175021
-0.048329
0.025997
0.020829
0.002422
-0.103910
-0.045406
-0.088992
-0.160249
-0.087393
-0.123019
-0.065756
-0.091209
-0.019349
0.046019
0.008630
0.092399
-0.070023
0.128488
0.005828
-0.184687
-0.155855
-0.093316
0.036402
0.067490
-0.209686
-0.179764
-0.086341
-0.156776
-0.001796
-0.017257
-0.021429
0.007062
-0.161912
-0.047435
0.034308
-0.016985
0.032443
0.101046
-0.071213
-0.121875
-0.044883
-0.174349
-0.027211
0.001204
0.032250
0.026807
-0.123366
0.063865
0.092120
-0.006078
0.148550
0.004185
-0.035109
0.050872
0.150151
0.002220
0.077265
-0.076816
0.023352
-0.057902
-0.053654
0.040882
-0.027981
-0.095941
-0.076330
0.007002
-0.154029
0.081429
0.134606
-0.007062
-0.184900
0.083685
-0.035259
-0.029824
0.066324
0.099374
-0.036555
0.026146
-0.186064
-0.110943
-0.079538
-0.098116
-0.100879
-0.168952
0.012869
0.087690
0.002526
-0.033584
0.084675
0.035507
-0.068073
0.115308
-0.014439
0.086724
-0.037751
0.025714
-0.172203
0.022819
-0.155532
0.062493
-0.072923
0.164147
-0.020700
-0.090597
-0.185328
-0.130238
0.023150
-0.031590
-0.002768
-0.079590
-0.029628
-0.121220
-0.038506
-0.052673
-0.029391
0.022527
-0.164206
0.006782
-0.074532
0.029819
0.020987
-0.012947
-0.126829
-0.130774
-0.029456
-0.126994
-0.125272
0.008340
-0.089080
0.016404
-0.000815
-0.104685
0.055612
-0.031987
0.027619
0.042540
-0.069726
-0.048602
-0.054754
-0.123824
0.035814
0.101939
-0.094457
-0.238728
-0.001229
0.050860
-0.165610
-0.076564
0.053606
0.028984
-0.108369
-0.063053
-0.103970
0.065882
-0.086288
0.029698
0.017030
-0.021053
-0.018255
-0.038088
-0.101488
0.028529
0.097901
0.015778
-0.162512
0.029966
0.018538
0.002774
0.059178
-0.059435
0.064461
-0.097954
-0.013991
0.072839
-0.018789
0.046355
-0.023177
-0.015601
-0.157408
0.126649
-0.064281
0.059304
0.198865
0.079566
-0.027776
0.000136
-0.042201
-0.173061
0.055834
-0.114613
0.051452
-0.036272
-0.325214
0.150024
-0.049862
-0.046952
-0.150203
-0.156495
0.128964
0.049881
0.006587
-0.047914
0.140393
0.084784
-0.047996
-0.140256
0.055440
0.073848
0.031077
-0.114271
0.142188
-0.007513
-0.011042
-0.020148
-0.121281
0.101538
-0.095248
-0.090261
0.016280
-0.035214
-0.069402
-0.028869
0.039878
-0.053004
-0.141243
0.051898
0.054453
0.024753
0.024270
-0.081835
-0.045484
-0.061864
-0.012376
0.052288
-0.160280
0.112377
0.011151
0.090783
0.043112
-0.025392
0.049709
0.039911
0.025923
-0.028240
-0.045274
0.064097
-0.048780
0.010450
-0.049995
0.017079
-0.057570
-0.030816
-0.058921
0.009778
0.055610
-0.016832
-0.026300
-0.003321
0.052842
0.010261
0.034258
0.010844
0.033336
0.093898
-0.045236
0.008999
0.058298
0.013689
-0.009225
0.036149
0.041906
0.043722
0.045673
0.041214
-0.029950
0.030118
0.037384
0.098155
0.008372
-0.002575
-0.014341
0.031692
0.031078
0.015540
0.060279
0.028667
0.015640
0.026111
-0.028353
0.013421
-0.013824
0.035507
0.084338
0.044197
0.042997
-0.024234
0.000323
0.074576
0.050536
-0.009300
-0.022657
-0.044470
-0.055129
-0.040281
0.015527
0.003680
0.079578
-0.011353
0.043825
0.098587
-0.008424
0.096139
-0.023053
-0.033272
-0.025211
0.016397
-0.024935
0.068901
0.083059
0.046554
-0.010533
0.033037
0.058566
-0.006945
0.024452
-0.003407
0.004530
0.067190
-0.003588
0.050400
0.121427
0.011823
-0.022492
0.010507
0.026777
0.002093
-0.062923
-0.149959
-0.032804
0.075603
-0.024095
0.044157
0.019516
0.053788
0.100921
0.048382
-0.010485
-0.019107
-0.041568
0.057685
0.026107
0.066717
0.019068
-0.032284
0.066489
0.045290
0.048751
0.059627
0.017083
0.071465
-0.006144
0.042768
0.075592
0.050805
0.005823
-0.062115
-0.037117
-0.003845
-0.072744
0.091587
0.071852
0.043029
-0.023857
0.024830
-0.001722
0.017919
-0.010669
0.030316
-0.007783
-0.027485
0.061649
-0.006328
0.012904
-0.003573
0.060943
-0.037661
-0.005199
-0.013728
0.009270
-0.011942
0.064448
0.046249
-0.013050
0.073338
-0.019964
-0.010513
0.049429
-0.035276
-0.061398
0.046775
-0.021798
-0.037441
0.045394
0.026368
0.017098
-0.012708
-0.008422
-0.026509
-0.042397
-0.001373
-0.070499
-0.044766
-0.024603
-0.067582
0.047802
0.113786
-0.023503
-0.106170
-0.024447
-0.052509
-0.091217
0.110592
-0.055229
-0.041992
0.006436
0.028711
-0.014828
-0.047556
0.053751
0.068300
-0.015227
-0.019344
-0.022160
0.012973
-0.064627
0.013938
-0.023034
0.047849
0.059724
-0.001869
0.077296
-0.015223
-0.040913
0.097005
0.043194
0.062626
0.021686
0.017895
-0.005679
-0.013914
0.126400
0.027127
0.145459
0.028852
0.016334
0.014874
0.013325
0.040730
0.060636
0.067050
0.036144
-0.008647
-0.035945
-0.035263
0.003393
-0.049751
0.040329
0.001716
0.021681
0.030310
0.132984
-0.013956
-0.040250
-0.024635
0.096207
0.040769
-0.025573
-0.007706
0.048582
0.088592
0.038050
-0.014459
0.019663
-0.078705
-0.028407
-0.021233
-0.039800
0.004736
-0.025794
0.021781
0.053917
-0.014123
-0.015277
-0.014382
0.030417
-0.012263
-0.004012
-0.028045
-0.181239
0.029873
-0.125972
-0.186898
-0.077284
0.035417
0.014301
-0.015933
-0.098182
0.120637
-0.111048
-0.005042
-0.103159
-0.053367
0.134450
0.011613
-0.048022
0.039718
-0.048886
-0.083080
0.053642
0.015731
0.061459
0.173945
-0.004419
-0.137945
-0.099774
0.025881
-0.031006
0.151927
0.016612
0.059679
0.070234
0.083667
-0.239136
-0.237825
-0.063273
0.000934
-0.104706
-0.010065
0.086293
-0.027005
0.031995
0.117408
0.055702
-0.026364
-0.011403
-0.149777
0.064958
0.112281
-0.059610
-0.137648
0.034151
-0.066466
-0.086297
-0.089263
-0.132752
-0.045801
-0.020272
-0.112402
0.015101
-0.080747
-0.108407
0.031859
0.470422
-0.045132
0.082953
-0.078029
-0.068193
-0.048988
-0.051061
0.105470
-0.054603
-0.022609
-0.031364
-0.013285
0.042148
0.056574
-0.122110
0.067947
0.144260
-0.089365
-0.037670
-0.006349
-0.042202
-0.070488
-0.048057
0.014024
-0.121574
0.011397
0.090714
-0.092061
0.006690
0.065975
-0.120408
-0.051229
-0.120859
-0.115892
0.017163
-0.120755
0.022339
0.041416
-0.045932
0.074220
-0.125420
0.078831
0.055193
0.097279
0.080010
0.111530
-0.022348
-0.062541
-0.098832
0.005808
-0.014841
-0.036435
-0.044456
0.028551
-0.039858
0.109471
-0.085581
-0.031542
-0.017893
0.064833
0.052232
-0.048279
0.087134
-0.109743
0.002541
-0.061332
-0.105850
0.031518
0.060389
-0.053955
0.040458
0.141678
0.077813
-0.043426
-0.021636
-0.051141
-0.102681
0.013117
-0.048932
-0.086929
0.101777
0.005725
0.018187
-0.049387
-0.024666
0.027502
0.013836
-0.030702
-0.085559
0.025786
0.022551
0.025940
0.052331
0.027474
-0.124809
0.024347
0.026090
0.079608
0.139627
0.011049
0.063372
0.048646
-0.033567
-0.002043
0.056618
0.086675
-0.003127
-0.211352
0.092074
0.029001
-0.041153
-0.037675
0.102187
-0.069901
-0.124916
0.013414
0.040081
-0.114102
-0.088962
-0.140062
0.069507
0.096875
0.138231
-0.038562
0.007044
0.036089
0.108416
-0.005075
-0.155991
0.030347
-0.135281
-0.076723
-0.115151
0.012059
0.130975
-0.119277
-0.061466
0.148624
-0.150348
-0.133005
-0.053553
0.010134
0.057188
-0.017676
-0.098814
-0.081313
-0.040601
-0.066540
0.059558
-0.043835
0.058086
0.274688
-0.099153
-0.037002
-0.167065
0.027641
-0.134965
-0.135345
-0.015585
-0.051709
-0.008044
-0.063058
-0.026433
0.067914
-0.177237
0.062988
0.010761
-0.062108
-0.076839
-0.072905
-0.215018
0.015814
-0.012032
-0.033049
0.119938
-0.098611
0.015318
0.105040
0.035211
-0.057246
-0.042237
-0.108450
-0.152559
-0.094407
-0.114587
0.005058
-0.059179
-0.053134
-0.007011
0.100319
0.065625
0.018145
0.028653
-0.129503
-0.211894
0.111555
0.068730
0.779888
-0.109634
-0.172801
-0.166277
0.040081
0.100949
0.075446
-0.131460
-0.209972
0.051151
0.139706
-0.235607
-0.053155
-0.515377
-0.031463
-0.077726
-0.209455
0.195621
-0.233455
0.066665
0.018673
0.033075
0.053996
0.042114
-0.070546
0.256047
-0.058466
0.198110
0.146846
0.528675
-0.105703
0.074450
-0.024991
0.043712
-0.259875
0.130698
-0.193885
-0.354146
-0.205654
0.176987
0.088185
-0.303914
-0.137994
-0.052871
-0.035132
-0.492305
-0.886427
-0.264526
-0.167069
0.293701
-0.178662
0.165053
-0.138995
0.336640
-0.055897
-0.394579
0.035500
0.450052
0.009839
-0.045519
-0.141256
0.240188
-0.245443
-0.159132
-0.228915
-0.173004
0.037618
0.045533
-0.083843
0.169634
-0.192030
-0.171338
-0.036780
-0.011172
-0.166797
-0.343091
0.115698
-0.279787
0.044224
-0.136218
-0.021945
-0.315605
0.120129
0.082741
0.074724
-0.288834
0.731081
-0.033560
-0.228859
-0.083277
-0.185254
-0.208927
0.034416
-0.029027
-0.249300
-0.117371
0.167597
-0.168271
0.267599
-0.213865
0.224007
-0.530641
-0.137785
-0.195570
0.013115
0.017831
0.039131
-0.162637
0.131018
-0.223559
-0.233527
0.183648
-0.205024
0.089854
-0.231265
0.081330
0.273721
0.183915
0.194271
0.048527
-0.518893
0.132871
0.573318
-0.001463
-0.070212
0.247341
-0.258752
0.009732
-0.182734
-0.134268
-0.161325
-0.150337
-0.078260
-0.277392
-0.731238
-0.063275
0.047745
0.775349
-0.156764
0.139058
-0.179484
0.025106
0.076105
0.110526
-0.092021
-0.110105
0.012580
-0.096613
0.051832
0.073616
0.030639
0.014970
-0.033715
-0.188157
0.131690
0.202907
0.095048
0.144324
0.148459
-0.031990
0.150294
-0.359291
0.020663
0.297297
-0.009658
0.404678
-0.214561
0.405417
0.335639
-0.100588
0.282823
-0.232408
-0.677353
0.232114
-0.101841
-0.232894
-0.438018
0.278711
-0.251957
-0.182552
-0.298036
-0.018423
0.141934
0.102323
0.115096
-0.392929
-0.199952
0.058002
-0.043651
-0.145712
0.480349
-0.216297
-0.102309
0.422091
0.202185
-0.164893
-0.123235
0.041124
0.044569
-0.178239
0.015307
-0.475078
-0.250822
0.170013
0.246248
-0.204771
0.186138
-0.011117
0.257951
0.034575
-0.037921
-0.347805
-0.145736
-0.092313
-0.518001
-0.205910
-0.182049
0.034508
-0.176957
-0.005159
-0.017846
0.138528
-0.157684
-0.684934
-0.046201
-0.154089
-0.134725
0.160544
-0.027949
0.154122
-0.047086
-0.328843
0.142013
0.115503
0.054786
0.026019
-0.204212
0.074839
0.068988
0.075034
-0.081710
0.046772
-0.238098
0.335757
0.028245
-0.103886
0.067528
0.393938
0.089487
-0.073265
0.120360
0.002411
0.080790
-0.239954
0.114908
-0.118412
-0.198407
-0.513897
0.011600
0.183203
0.238571
0.351102
0.030495
0.087364
0.051521
0.068184
-0.028895
-0.244527
-0.045236
-0.082383
-0.002142
0.108635
-0.178495
-0.205581
0.043381
-0.325330
-0.029500
0.195939
-0.129275
-0.065263
0.178671
-0.338853
0.140340
-0.167205
0.075572
0.414822
-0.121591
0.033752
0.142649
-0.204459
-0.216182
0.060767
0.340940
-0.108027
-0.175308
0.057487
0.037373
-0.182236
-0.431980
-0.316822
0.065623
0.118790
0.365753
0.271777
-0.174260
-0.245143
-0.143923
0.099285
-0.034755
0.313208
0.090120
-0.060225
0.048080
0.283992
0.240422
-0.092848
-0.550198
-0.140619
0.272410
-0.020248
0.062345
-0.133284
-0.210366
0.178795
-0.083135
-0.091155
0.058651
-0.160263
0.275334
-0.111575
-0.075033
-0.072432
0.033505
0.419710
0.107196
-0.216435
0.593221
0.023476
-0.233549
-0.181230
-0.064784
0.024903
-0.499290
-0.020248
-0.064988
-0.014800
0.285760
-0.224946
-0.039987
-0.205903
0.169447
0.080815
-0.371995
0.028124
0.161911
-0.218589
-0.023570
0.124623
0.102478
-0.022906
0.241031
-0.349917
0.542232
0.223156
0.130331
-0.254112
-0.107039
0.089487
0.057113
-0.035515
-0.199868
-0.087405
0.147685
0.275408
0.110729
0.057083
0.300014
-0.176953
0.127920
0.063228
-0.286913
0.381812
-0.434105
-0.086762
0.078518
-0.075103
0.198970
0.051351
0.159796
0.027387
0.073848
0.079527
0.058830
-0.038997
-0.139630
0.005499
-0.081427
-0.181532
-0.112793
0.137146
-0.219433
-0.228813
-0.086649
0.089457
-0.421229
-0.002419
-0.145478
0.042139
0.018921
-0.053845
0.445953
-0.066755
0.039478
-0.054984
-0.190564
0.224625
0.069414
0.296089
-0.002997
0.130518
0.204206
0.527265
-0.035085
0.092795
-0.199042
-0.078469
0.152035
-0.201214
-0.836853
-0.356969
-0.196807
-0.103670
-0.190356
0.085128
-0.367902
-0.032957
-0.133839
-0.090587
-0.285759
0.198504
-0.039716
0.050208
-0.070415
0.439694
0.005276
0.186961
0.166536
0.004818
0.033554
0.499913
0.249335
0.098536
-0.288913
0.228461
0.333444
0.172051
0.542990
0.159978
-0.117774
0.207751
0.439558
0.059791
-0.261656
0.113508
0.399857
-0.073789
0.054757
0.193998
-0.261787
-0.101279
0.145647
0.106537
-0.053392
-0.116455
-0.076185
0.018394
-0.037900
-0.664487
-0.087657
-0.765046
-0.183331
0.036685
-0.003322
-0.468957
-0.201352
-0.000358
-0.103386
-0.052231
0.652476
0.036423
0.007455
0.027158
0.041568
0.171850
-0.170274
-0.177973
0.140924
-0.248104
-0.416836
0.582112
-0.267180
0.222226
-0.150544
-0.167815
0.338664
-0.008786
0.273198
-0.408229
0.290819
-0.018616
-0.310436
0.056556
0.223264
-0.088561
0.103890
-0.081911
0.043744
0.190660
-0.259617
0.025791
-0.139246
0.084387
0.046624
0.003723
-0.022036
-0.078949
0.110454
-0.113473
0.131511
0.223237
-0.029521
0.105357
0.002738
0.036181
-0.129744
-0.052100
-0.046552
0.278887
-0.101785
0.403965
-0.002504
-0.282809
-0.142948
-0.079659
-0.384488
-0.050559
0.000508
0.342829
-0.289422
-0.273750
-0.303291
0.234379
-0.171636
-0.143082
0.001984
0.112746
-0.065323
-0.175659
-0.243668
-0.265672
0.105587
0.417401
0.330415
0.084205
0.519107
0.138760
0.043875
-0.039957
0.021252
0.130768
-0.058808
-0.135774
-0.159926
-0.001200
0.078762
0.318903
0.056739
-0.007822
-0.102164
0.309451
-0.225086
-0.113837
0.118430
0.167958
-0.232462
-0.163609
-0.236696
0.521784
-0.290318
-0.371570
-0.105762
0.144683
-0.054002
-0.026550
-0.110759
0.065119
-0.110424
0.014729
-0.043938
0.417949
-0.097878
-0.186991
-0.178194
0.090430
0.238738
-0.138834
-0.211568
-0.211582
-0.283510
0.274053
-0.510915
-0.172864
-0.116933
-0.048045
-0.007477
0.149194
0.049608
-0.157093
-0.061621
0.482942
0.062310
-0.131164
0.019975
0.072290
-0.207522
0.274904
0.047023
0.213176
-0.041107
-0.047333
-0.096145
-0.474086
-0.076640
0.036917
-0.684535
0.243546
0.117461
-0.503490
-0.509263
0.135496
-0.249320
-0.179382
-0.032267
-0.519165
0.040976
-0.072643
-0.035373
0.010855
-0.018610
-0.130079
0.000504
-0.157817
0.553187
0.056505
-0.242212
-0.398165
0.114882
0.157623
-0.064408
-0.051747
0.069896
-0.062813
0.031726
0.091899
-0.126008
0.107343
0.179643
0.305768
0.090226
0.039031
-0.269568
-0.075684
-0.053511
-0.219806
-0.087504
-0.083205
-0.099525
-0.010181
0.035273
-0.055055
0.295431
0.106564
0.474496
0.085412
0.206853
0.142036
-0.087487
-0.171001
0.282634
-0.000480
0.165916
-0.246735
-0.338116
0.095713
-0.386736
-0.271042
-0.154242
-0.030461
0.144307
-0.348170
-0.180654
0.222546
0.009732
0.217315
-0.054187
-0.452660
-0.014507
-0.289010
-0.113426
-0.031076
0.109240
-0.283854
-0.345876
-0.000245
-0.107780
-0.125123
-0.093850
-0.416419
-0.159201
-0.053931
0.043852
0.257035
-0.066125
0.117784
-0.158309
0.036466
0.095299
0.085860
0.031409
-0.161188
0.095122
-0.137795
-0.113613
-0.206269
0.023417
0.122311
-0.213931
-0.143509
-0.005408
-0.051296
-0.375751
-0.451121
-0.062171
-0.254239
0.079262
-0.044263
0.053163
0.011795
0.108748
-0.115063
0.757115
-0.208398
-0.152602
0.021608
0.213014
-0.395763
-0.038072
0.226908
-0.039105
-0.397268
-0.023042
0.093845
-0.559281
0.252635
-0.055572
-0.184998
-0.137194
-0.133045
-0.442309
-0.045954
-0.209178
0.276153
-0.043533
-0.104340
0.533957
0.057999
-0.051219
0.203845
-0.120853
-0.181052
-0.053290
-0.613882
0.183180
-0.059126
-0.182985
-0.142742
0.243423
0.136725
-0.046433
0.007000
0.112179
-0.096422
-0.155021
-0.252796
-0.066600
-0.069287
-0.338846
0.209968
-0.175530
-0.056358
-0.220425
0.382068
-0.135495
-0.148555
0.431042
0.012871
0.062394
0.388274
0.087281
-0.077752
-0.246531
0.133219
-0.257679
0.210731
-0.157822
0.473146
-0.013555
0.281407
-0.044264
0.207855
-0.034889
0.077231
0.163851
-0.169325
-0.080789
0.150226
0.082957
-0.030787
0.065670
-0.097677
-0.039675
0.149996
-0.466499
-0.486504
0.075205
-0.161263
-0.192104
0.089459
-0.038694
0.146506
-0.174090
-0.041328
0.248518
-0.217618
0.106265
-0.401354
0.218048
-0.319140
-0.345975
-0.160146
-0.416437
-0.044531
0.156718
0.082357
-0.148890
-0.211702
-0.071719
0.036353
-0.192168
-0.130705
-0.394817
-0.122098
0.148813
0.208017
0.188722
-0.214892
-0.123146
0.119568
-0.079814
-0.098463
-0.068836
-0.048821
-0.021061
0.328491
-0.229549
0.121312
0.028780
-0.220781
0.149245
-0.216245
0.028939
0.070757
0.178842
-0.020492
0.456607
-0.091482
-0.075790
0.155246
-0.085740
0.246807
0.530831
-0.058747
-0.259512
-0.028880
0.396248
0.438277
0.114869
-0.242102
-0.500670
-0.460452
-0.148701
-0.100604
0.144255
-0.088811
-0.224209
0.458924
0.170616
0.074264
0.373713
0.666656
-0.186965
0.005362
-0.019690
0.395985
-0.070972
-0.050541
-0.269598
0.074247
-0.202123
0.007664
0.026507
-0.058516
0.315272
-0.361927
-0.097328
0.268633
-0.132820
-0.107943
0.228454
0.035554
0.135453
-0.118853
0.006383
0.060152
0.502764
0.003212
0.468442
0.248150
0.060951
0.111146
-0.032006
0.527700
0.328710
-0.096676
-0.157265
-0.146177
-0.085728
-0.043066
0.149696
0.220131
-0.453402
0.432687
-0.057812
0.244382
-0.378759
-0.855008
0.100436
-0.048917
0.155345
0.024441
0.088877
-0.142001
0.198793
-0.092772
0.090868
-0.044784
-0.227474
-0.061779
-0.330045
0.236248
0.026516
-0.076837
0.409879
-0.064592
0.053056
-0.001830
-0.356375
0.059860
-0.074266
-0.238011
0.035789
-0.189393
-0.182852
0.202159
-0.009673
-0.104498
-0.008802
-0.021859
0.060325
0.260068
-0.196912
0.060389
-0.093444
0.045934
0.136806
-0.480829
0.515134
0.059686
0.030752
0.144102
-0.364153
0.032148
-0.050530
-0.114019
-0.104239
-0.279509
-0.378497
0.334292
-0.035550
0.285624
0.107974
-0.153908
0.172066
0.036090
-0.209864
-0.025037
-0.087727
0.099197
0.074404
-0.188379
0.061025
-0.174472
-0.039607
-0.098189
0.299610
0.063644
-0.031564
0.134441
-0.050481
-0.195960
-0.171053
-0.130675
0.172885
-0.034286
-0.051119
-0.129598
-0.052650
0.511619
0.028783
-0.130480
0.008970
-0.091985
0.008715
-0.007127
-0.083625
0.085596
0.044728
-0.025109
-0.123119
0.173590
-0.083161
-0.025419
0.370927
0.025641
-0.367301
-0.026030
-0.117246
-0.199270
-0.047590
0.092370
-0.048203
0.029274
0.184444
0.087269
0.039736
0.218967
0.315014
-0.133771
0.201190
0.095058
0.266461
0.153949
-0.141902
-0.044223
0.147182
-0.262232
-0.266462
0.068160
-0.206975
-0.015987
-0.105250
0.259600
0.214685
-0.150076
-0.022078
0.219362
0.302860
0.244783
0.010704
-0.086483
0.006323
-0.160461
0.069447
-0.023005
0.052160
-0.148043
-0.049779
-0.073533
-0.001905
0.147543
-0.082150
-0.593468
0.003496
-0.412009
0.032523
0.104125
-0.248866
-0.097872
0.059502
-0.105411
-0.335859
-0.055331
0.032842
-0.134096
0.047174
0.032510
0.001580
-0.154536
-0.474875
-0.068660
-0.253512
-0.002986
0.117357
-0.324264
0.145844
-0.397103
-0.031452
0.026166
0.194864
-0.270061
0.082891
0.386516
0.018805
-0.119399
-0.260487
0.127977
0.088254
-0.188781
-0.257069
0.244627
-0.178685
0.000705
0.325000
-0.279648
-0.128903
0.075062
-0.381970
-0.116283
-0.003558
-0.051625
-0.671640
-0.068008
-0.035093
-0.245794
0.159128
-0.480404
0.025755
0.172807
-0.001426
-0.180738
0.065016
-0.262395
0.173684
-0.163127
0.584595
-0.068474
0.065838
-0.431346
-0.203754
-0.035568
-0.009263
0.188204
-0.085582
0.347956
0.207024
-0.087069
0.141812
0.005921
-0.142445
-0.142639
0.033477
0.054803
-0.107441
0.147857
0.009346
0.026464
0.040998
-0.081245
-0.093738
-0.099622
-0.090278
-0.015811
-0.090822
0.083806
0.171248
0.260277
-0.266731
0.227857
0.058974
-0.082451
-0.276901
0.038191
0.005196
-0.209298
0.046828
0.113511
0.066430
-0.099708
0.208425
-0.451209
0.151843
0.197571
-0.159004
0.057383
0.033615
0.160153
0.085076
0.007163
0.155753
0.150383
-0.255690
-0.092553
0.003522
-0.174511
-0.104345
-0.007592
-0.017463
0.213532
0.164585
-0.128981
-0.374233
-0.048713
0.121316
0.038978
-0.066153
-0.082551
-0.108441
-0.094884
-0.183111
0.357983
-0.031281
-0.115994
0.067244
-0.139610
0.008371
0.792416
-0.225591
-0.095425
-0.056461
-0.014606
0.269109
-0.031172
0.418045
-0.012370
0.057968
0.205206
0.190061
0.117617
-0.168402
0.036720
0.172768
0.052511
0.602052
0.018256
-0.112265
-0.092807
-0.179973
0.048429
-0.045353
-0.258155
-0.146423
0.104804
-0.106241
0.041937
-0.041672
0.127773
0.128049
-0.047904
-0.084680
-0.076083
0.080982
-0.036385
-0.075377
-0.015006
-0.039188
-0.120841
-0.005769
0.029154
-0.040295
0.159447
0.063584
0.019266
-0.037397
-0.105926
-0.008020
0.113061
-0.005457
-0.031314
-0.123141
-0.033678
0.033892
-0.062758
0.248750
-0.026481
-0.046117
0.143437
0.093875
-0.118513
0.038812
-0.215526
-0.098290
0.130332
0.102939
-0.128338
0.129468
0.028624
-0.150727
0.165172
0.016052
0.007396
0.029151
-0.064813
0.093937
-0.094492
-0.070708
0.080435
0.196330
0.014785
-0.152030
0.030112
0.038393
-0.103425
0.010292
-0.056380
-0.047264
-0.050142
-0.095430
-0.034283
0.022383
0.039433
0.046612
0.078495
-0.147514
0.088496
-0.071913
-0.016946
-0.001023
0.035702
-0.091603
0.014957
0.106707
-0.000681
-0.070968
0.028799
0.059723
0.035644
0.089502
0.133629
0.037131
-0.036849
-0.053278
0.079099
0.122174
0.031409
-0.076819
-0.045442
0.008117
-0.074990
-0.018728
-0.057130
-0.067867
-0.107598
-0.033940
0.004511
0.050003
0.036306
0.124188
0.100673
0.105323
-0.147347
-0.066495
0.003948
-0.009081
-0.026123
-0.001613
0.009217
-0.003199
-0.074271
-0.016188
-0.168896
0.040739
-0.098839
0.126698
0.005966
-0.042495
-0.108154
-0.005217
-0.068224
0.047004
-0.007019
0.002736
-0.047494
-0.131886
0.022212
-0.000593
0.023703
-0.122533
-0.063521
0.009428
0.050868
-0.065502
-0.075751
-0.053791
-0.052409
0.128031
0.074905
0.106060
0.008682
0.077159
-0.079717
-0.029520
0.084823
0.000629
0.032823
0.256928
0.009470
-0.065078
0.081355
-0.017802
-0.096361
0.082841
-0.103814
0.181477
-0.067071
0.074306
-0.062866
-0.136786
0.171401
0.079932
0.024845
0.084072
-0.182333
-0.004003
-0.121476
-0.086643
-0.077857
-0.059697
0.068254
0.087405
-0.055419
-0.272648
0.036098
0.121325
-0.230121
-0.025392
0.032528
-0.056348
0.009751
-0.055567
-0.031737
-0.046746
-0.136238
-0.056653
-0.008763
-0.033633
-0.093050
0.056777
-0.145649
-0.043117
-0.073141
-0.170335
-0.008407
-0.076738
0.023344
0.011546
-0.054642
0.070878
-0.015916
0.013604
0.068814
-0.020258
-0.147277
0.137822
0.049972
0.017817
-0.167461
-0.092163
0.068745
-0.027826
0.010626
0.112025
0.222086
0.106799
0.118951
-0.077269
-0.199646
0.012092
0.158336
0.043021
0.138961
0.093624
0.004720
0.098654
-0.187692
-0.017226
-0.014006
-0.077416
-0.176784
0.002155
-0.026791
0.093383
0.051516
-0.104814
0.147804
-0.025585
-0.017307
-0.106214
-0.010122
-0.105213
-0.008464
-0.079417
-0.116310
0.113606
-0.069963
-0.011689
0.021796
-0.130596
-0.028053
-0.080543
0.128040
-0.100353
-0.091378
0.082146
0.061780
-0.006126
-0.118053
-0.047194
0.069720
0.018577
0.001067
-0.065172
-0.146790
-0.099366
0.018044
-0.126422
-0.078974
-0.068312
-0.082162
0.003910
-0.184767
0.073305
0.009885
-0.055562
-0.096707
0.050836
0.016253
0.058362
0.171615
-0.113647
-0.166674
0.073562
-0.093283
-0.057042
0.054755
0.013416
0.088847
-0.146570
-0.024465
-0.107473
-0.114716
0.033962
0.031870
0.117359
0.086148
0.067168
0.006117
-0.000554
-0.148276
-0.058580
-0.063665
-0.018354
-0.101649
0.016182
0.026960
-0.197973
-0.049814
0.007574
0.049331
-0.044555
-0.005376
-0.025982
-0.007546
0.016873
0.022881
-0.059405
0.288551
0.022385
-0.073228
-0.053609
0.119405
0.154475
0.282388
-0.031927
-0.052950
-0.069938
-0.126479
0.197297
-0.050556
-0.073680
-0.034521
-0.022702
-0.145736
0.024196
0.046862
0.063865
-0.129470
-0.089971
-0.040565
0.191515
0.121251
0.014373
0.074021
-0.008779
-0.109016
0.000235
0.047458
-0.018017
-0.075542
-0.030162
-0.003262
0.026401
-0.024049
-0.038855
0.176473
0.054138
-0.053429
0.072464
-0.073202
0.121492
-0.021701
-0.052068
-0.096329
-0.055076
-0.049970
-0.038279
-0.109610
0.051574
0.031100
-0.065072
-0.123484
-0.246649
-0.054176
0.085035
0.084600
-0.008633
0.014684
0.090669
-0.023027
-0.016759
0.089967
0.020302
-0.000048
-0.009494
-0.069431
-0.022503
-0.026661
-0.051571
0.060159
0.026060
-0.010617
0.046685
-0.062768
-0.027772
-0.106489
-0.055326
-0.100114
0.030715
0.019502
0.067725
0.042756
-0.077955
-0.120972
0.076060
-0.127384
0.153329
-0.017486
-0.006941
-0.060026
-0.022134
-0.096530
-0.013971
-0.194900
-0.019746
0.063869
0.058561
-0.049673
0.009936
-0.035445
-0.110719
-0.191572
0.042634
0.168593
-0.164996
0.109564
-0.107445
-0.113230
0.073539
0.052912
0.059173
-0.315858
-0.065817
0.011113
-0.011125
-0.001739
-0.143901
-0.079392
-0.008634
0.027640
0.026414
-0.134252
-0.122735
-0.000578
-0.097581
-0.124369
-0.009394
-0.072977
0.051351
0.016962
-0.004960
0.096376
-0.026179
-0.023408
-0.029055
-0.105408
0.030833
-0.014139
0.023404
-0.180337
-0.058919
-0.127878
-0.003272
0.093728
-0.016810
-0.112339
-0.051209
0.030842
0.097974
0.009059
-0.022852
-0.026806
-0.137645
0.028120
0.053459
-0.056049
0.034222
-0.024644
-0.091156
-0.025021
-0.031034
-0.233467
-0.076875
-0.103458
-0.042495
-0.196008
-0.207604
-0.241401
-0.029637
0.001952
0.064715
-0.060363
-0.077967
-0.041934
-0.071334
0.030454
0.018261
-0.145260
0.023453
0.010555
-0.058059
-0.023726
-0.136973
0.010116
-0.000141
0.011852
-0.268890
-0.060857
-0.243216
0.145940
-0.151798
-0.126105
0.290246
-0.142423
-0.016595
-0.236139
0.498353
-0.306659
-0.039609
0.172189
0.298803
-0.016702
0.043538
0.043829
0.320427
-0.241080
-0.232259
-0.135164
0.073721
0.090965
-0.204510
0.049364
-0.079350
-0.132644
0.014616
0.073504
0.163185
-0.215789
0.042915
-0.037466
-0.154184
0.071178
0.187413
-0.200087
0.046741
0.031772
0.166823
0.513875
-0.322897
-0.304729
0.043114
0.032471
0.397497
-0.171353
0.302268
0.185580
0.534926
0.016064
0.159279
0.021820
0.213872
0.127772
-0.007662
0.358618
-0.028485
0.615393
-0.504499
0.189427
0.031307
0.309535
0.170112
0.172107
0.039558
0.083773
0.651160
-0.067323
0.148874
0.067243
-0.336959
0.024105
0.170727
-0.200324
-0.015999
0.194687
0.219584
-0.229803
0.095446
0.158045
-0.154909
-0.158547
-0.139633
-0.161898
0.144414
0.328252
-0.160712
-0.455959
-0.046500
0.030611
0.267864
-0.359814
-0.368324
0.022057
0.085324
0.104982
0.071052
-0.032566
0.008511
-0.004819
0.110771
-0.084663
0.286203
0.102861
-0.333319
0.385510
0.032708
-0.184632
-0.076761
0.140749
-0.191950
-0.222975
0.052328
-0.676763
0.069233
0.108606
0.044513
0.010026
-0.073609
0.024984
-0.165912
-0.322809
0.049864
-0.102362
-0.127064
0.256438
0.261754
0.156238
-0.005596
-0.275592
-0.079182
0.330077
0.285408
0.187853
-0.107551
0.065339
0.451404
0.606716
0.114234
0.088071
0.248907
0.082524
0.009700
-0.295862
0.137019
0.139493
0.118434
0.155405
-0.098156
-0.322374
0.004442
-0.100543
-0.168365
-0.085303
0.315098
-0.055106
-0.184152
-0.103928
-0.374534
0.032904
-0.578758
-0.006578
-0.094866
-0.230953
0.597304
-0.194578
-0.097320
0.140144
0.151830
-0.006577
-0.007013
-0.307787
-0.246300
0.244630
-0.057307
0.076934
-0.129900
-0.021505
-0.208038
-0.107788
0.077969
0.033703
0.100952
0.114376
0.080496
-0.258483
-0.154098
-0.093180
-0.112932
0.183270
0.173001
0.141993
0.563231
-0.096889
0.028267
0.106797
0.115091
0.007695
-0.070555
0.223296
0.010027
-0.033529
-0.099171
0.264039
-0.090709
-0.090002
0.504874
0.414989
0.100046
0.074233
-0.019725
0.164165
0.342315
0.091972
0.469827
-0.391234
-0.053425
-0.116211
0.107851
0.057874
-0.367868
-0.120953
0.084281
0.245108
-0.052010
-0.229732
-0.058009
0.538795
0.303194
-0.187906
0.122967
-0.026489
-0.143145
0.104133
-0.204700
0.147605
0.196571
-0.129306
-0.380770
-0.127752
0.095584
-0.243907
0.078049
0.030742
-0.485944
0.057593
-0.146680
0.018959
0.112531
-0.213083
0.072236
0.200874
0.097112
0.165796
-0.053827
0.166308
-0.020105
0.095602
-0.011161
-0.034848
-0.059660
0.072182
0.178949
-0.127758
-0.197907
0.108116
0.154670
-0.161137
-0.010442
0.024450
-0.063106
-0.058817
-0.022539
-0.020562
-0.051103
0.291383
0.133478
-0.001245
0.167009
-0.234405
0.093282
-0.040067
-0.053037
-0.059297
0.096236
-0.128422
0.082682
-0.113548
-0.118112
-0.068708
-0.014465
-0.066479
-0.086596
-0.006784
0.116157
0.029695
-0.174986
0.228470
0.177227
-0.244362
-0.086149
0.095848
0.030532
-0.004286
-0.001244
0.085571
0.107447
-0.016846
-0.058639
0.016889
0.138051
-0.165324
-0.013204
0.153369
-0.042051
0.050905
0.029444
-0.015849
-0.065637
-0.000726
0.059199
0.210980
0.083475
-0.009812
-0.315193
-0.023499
-0.364085
0.061294
0.018652
0.027951
-0.100442
-0.013628
-0.157763
0.092678
-0.117860
0.084731
0.020662
0.154818
-0.019506
0.002302
-0.032253
-0.090306
-0.080715
0.001367
-0.034647
-0.062647
0.242250
-0.026220
0.219882
0.118190
0.071274
-0.087053
0.009888
0.005390
0.076126
0.136027
0.148701
0.075190
-0.162509
0.031594
0.181233
-0.104206
0.108115
0.212215
-0.056231
-0.014421
0.052822
0.096439
-0.081500
0.052312
0.056816
-0.043056
0.007758
0.053761
0.021636
-0.062088
-0.050863
-0.036025
-0.044001
0.067034
0.016798
-0.156300
0.048482
-0.185051
0.065456
-0.062282
-0.001304
-0.147173
-0.110472
0.072635
0.049585
-0.138413
-0.225060
0.234279
0.097437
0.105004
0.044339
-0.102233
-0.052330
0.175647
-0.088418
-0.040143
-0.136269
-0.031659
-0.070781
0.020669
-0.196743
-0.147130
0.017462
-0.057856
-0.186398
0.113168
0.067674
-0.044966
-0.062601
-0.080905
0.027628
-0.013305
-0.173385
-0.002723
-0.047887
-0.094967
0.083452
-0.199248
-0.037407
0.087165
0.059597
0.134680
-0.024800
-0.203614
0.064366
0.101941
0.253356
0.088519
0.139485
-0.040156
0.018323
-0.024362
-0.190774
0.207909
0.024235
-0.023241
-0.048114
0.076354
0.111203
-0.029384
0.045334
-0.161492
0.107625
-0.125343
-0.017440
0.091693
-0.005762
0.091717
0.027506
-0.058431
-0.125165
-0.104013
-0.144197
0.011735
0.066778
-0.029955
-0.074056
-0.244071
0.001153
-0.041470
-0.023281
-0.071694
0.132101
-0.162133
0.116903
-0.039235
0.057903
-0.146999
-0.110988
-0.049641
0.174815
-0.013230
0.004974
-0.035761
-0.038522
-0.071208
0.017474
-0.203816
0.075534
-0.473713
0.024102
-0.106203
0.092253
-0.021363
0.146953
-0.018448
0.009313
-0.006944
0.215767
-0.001488
-0.126467
-0.051912
0.030416
0.008944
0.019137
-0.121364
0.081000
0.040435
0.002166
0.085815
-0.229852
-0.020436
0.004052
0.047881
-0.092011
0.104597
-0.434281
-0.020000
-0.043965
-0.034845
0.155722
-0.103771
-0.089593
-0.102673
-0.039881
-0.407890
0.073484
-0.048364
0.228266
-0.378282
0.316044
-0.058133
-0.248013
-0.036688
-0.036706
-0.029127
-0.094576
-0.029576
-0.074770
0.032792
0.048371
-0.073700
-0.275281
-0.061968
0.112630
-0.245147
0.005581
0.133341
0.069726
0.008729
-0.042432
-0.291071
0.129802
-0.001360
-0.086487
-0.403858
-0.000161
-0.003229
0.476119
-0.156393
0.050871
0.228846
-0.002311
-0.073458
-0.175237
-0.135613
-0.089341
0.250876
-0.150814
0.319609
0.211380
0.052212
-0.242156
0.046062
-0.499254
-0.214072
0.034456
0.100533
0.077779
0.043567
-0.123599
0.011539
0.261229
-0.070923
0.268653
0.065287
-0.152592
0.123338
0.264383
-0.062709
-0.114078
-0.170485
0.157550
-0.574931
0.111138
-0.100552
-0.010697
-0.250154
-0.063517
-0.152303
0.130763
-0.189229
-0.179228
-0.187386
0.211623
-0.018306
-0.171228
0.057425
0.031201
0.099467
0.037823
-0.038599
0.185362
-0.153886
-0.451198
0.023011
-0.320204
0.040275
-0.374245
0.094441
0.046220
0.180885
-0.180358
0.350316
0.000335
-0.205170
-0.321062
-0.208279
-0.116849
0.416698
-0.011767
-0.090872
-0.267304
0.035955
-0.016887
0.179023
0.589919
0.049348
0.316400
0.022618
-0.137185
0.092350
-0.040764
-0.113249
0.281139
-0.083828
-0.257775
-0.125890
0.828483
-0.108975
0.055744
-0.002159
0.114364
0.024701
-0.246511
-0.150330
-0.276410
0.097827
-0.041583
-0.144787
-0.065794
-0.033513
0.083480
-0.048832
0.014635
-0.095141
0.161876
-0.115567
-0.057491
0.075254
0.023461
-0.409759
0.069966
0.123691
0.011047
0.005491
0.232217
-0.224510
0.014081
0.055878
0.203381
-0.194904
-0.116804
0.097955
-0.043130
0.154364
0.082104
0.057637
0.133728
0.006454
0.004502
0.103227
0.246997
-0.047169
0.026408
-0.040026
-0.093973
-0.144447
-0.270567
-0.298434
0.088170
0.006926
-0.265001
-0.039636
-0.396585
0.263695
-0.178037
-0.303510
-0.290869
0.305092
0.111674
0.126693
-0.122397
-0.099945
-0.083630
0.335564
0.364982
-0.119690
-0.094948
0.037594
0.243480
-0.145842
-0.137298
-0.146094
0.020790
0.068969
0.187300
0.077496
0.076554
0.084443
0.232052
-0.019981
0.082606
-0.036824
0.170583
0.045166
0.117558
-0.203771
0.059248
0.051615
-0.155357
0.078218
0.114793
-0.443605
-0.374510
-0.079892
-0.085501
-0.047827
0.135683
-0.246792
0.271850
0.059185
-0.087961
-0.327320
0.031842
-0.275568
0.018759
-0.048127
-0.104272
-0.138549
-0.562844
0.213343
-0.128386
-0.040305
0.125986
0.069013
-0.121211
0.400418
-0.130323
-0.209373
0.050133
-0.020516
0.053592
0.051152
0.101381
0.044679
0.060224
0.119317
-0.130263
0.051777
-0.046648
0.005358
0.072321
-0.002569
-0.004245
-0.006451
0.000750
0.028609
0.075780
0.131251
-0.091095
0.020400
0.101367
0.123147
-0.049145
0.088601
0.099442
0.023397
-0.019605
-0.070073
0.036546
-0.037391
0.078225
-0.049063
0.049568
0.039395
-0.060590
-0.004751
-0.086282
0.166607
-0.027019
0.027911
0.026944
-0.119948
-0.094459
-0.084048
-0.109492
0.023032
-0.056098
-0.019148
0.019106
0.099892
0.004284
-0.035175
0.101071
-0.130068
-0.118975
-0.080675
0.015351
-0.000172
0.001151
0.102174
0.060646
0.015868
-0.042656
0.071523
-0.153771
-0.096589
-0.074118
0.079723
-0.196973
0.092379
-0.043778
-0.074535
-0.001976
-0.030765
0.026332
0.108113
0.057942
-0.151261
0.131783
-0.000980
0.074257
0.087457
0.120072
-0.013150
0.100934
-0.111366
0.051410
0.034832
-0.016987
-0.113321
-0.063826
-0.032600
-0.021283
0.021206
0.074749
0.089338
0.059687
0.108612
-0.063112
0.078686
-0.011148
0.104143
-0.049248
-0.179964
-0.094030
0.068808
0.165511
-0.087010
-0.046262
0.084916
0.025778
-0.086522
0.063090
-0.089676
-0.004153
0.016325
-0.034528
-0.086042
-0.107886
-0.137718
-0.034767
-0.003409
-0.041014
-0.047715
-0.123386
-0.129141
-0.060973
0.045758
-0.097101
0.006375
0.124684
0.098628
-0.024284
0.029592
0.036286
0.088632
0.068572
-0.111098
-0.017368
0.161000
-0.080273
0.012400
0.097875
-0.186216
-0.108800
0.008040
0.002090
-0.015209
0.052272
0.067148
0.057254
-0.070438
-0.137683
-0.102736
-0.007780
-0.014775
-0.063026
0.031820
-0.116405
-0.034441
-0.051777
-0.083020
0.066758
0.112030
0.038175
-0.026236
-0.023435
-0.090515
0.191229
-0.068804
-0.075307
-0.089409
0.068039
0.029479
-0.058594
0.098951
-0.032144
0.149240
-0.011558
-0.142086
0.015499
-0.133335
-0.005422
0.089666
-0.062304
0.144017
-0.113076
-0.044663
-0.076624
0.018188
-0.007541
-0.121295
-0.046674
-0.040727
0.116491
-0.043010
0.038277
0.001336
0.073087
0.000409
0.074809
0.087120
0.143215
-0.027849
-0.127206
-0.056294
0.064377
-0.066883
-0.041895
0.130435
-0.117456
-0.017512
-0.139753
-0.022604
0.015021
-0.022559
-0.010904
0.016173
-0.051405
-0.087044
-0.147935
-0.056742
-0.102379
0.029609
0.012298
-0.149089
0.096508
-0.073374
-0.089612
-0.050222
0.157401
-0.013826
-0.061336
-0.009105
-0.096735
0.089546
0.104322
0.139684
-0.020606
-0.017837
0.044574
0.047317
0.027939
0.025563
-0.013659
0.011481
0.076912
-0.110338
-0.024904
-0.096641
-0.033880
0.000391
-0.073565
-0.040957
0.407432
-0.121735
0.072450
-0.013721
0.375892
0.117475
-0.006635
0.019074
-0.001427
-0.083695
-0.046600
0.021359
0.140670
0.031147
-0.101126
0.016502
-0.103791
0.232134
-0.033349
-0.136603
-0.125840
-0.138349
0.106143
0.122392
-0.079888
-0.025319
0.107937
-0.058397
0.035899
0.011954
-0.014026
0.004253
0.174322
-0.040744
-0.073668
0.011708
-0.121272
-0.113242
-0.064219
0.013958
-0.010530
-0.030806
-0.046978
-0.024744
0.041479
-0.164869
-0.020497
-0.079685
0.032242
0.079723
-0.025294
0.083079
-0.041931
-0.048290
-0.077834
-0.099373
-0.016002
0.014297
-0.126373
0.009675
-0.067255
-0.038587
-0.091623
0.052170
-0.036439
-0.074449
-0.077446
0.072697
0.028867
0.069734
-0.031822
-0.028512
-0.028072
-0.123562
-0.055627
0.036389
-0.104551
-0.101230
-0.118469
-0.144070
0.195688
0.053941
-0.063094
0.038964
-0.040361
0.006354
0.074564
-0.009895
-0.085315
-0.061758
-0.014629
-0.009389
-0.107174
0.019782
-0.158717
0.040650
-0.038150
-0.018174
-0.128360
0.087538
-0.182061
0.083384
0.013434
0.141190
-0.033194
-0.010595
-0.124805
-0.049797
0.014568
-0.118564
-0.018759
-0.014093
0.006508
0.012578
0.063584
-0.085744
-0.046384
0.030895
-0.009722
0.011736
0.003588
0.000861
0.048387
0.012683
-0.030259
0.312977
0.388688
-0.103658
0.018593
-0.135359
0.013804
-0.095733
-0.039313
-0.014168
0.029129
0.020753
-0.077383
0.009192
-0.020542
-0.035022
-0.009201
-0.005544
0.043662
-0.044846
-0.143063
0.022830
-0.106656
0.015655
-0.019439
-0.060972
-0.139870
-0.104431
0.020988
-0.094724
-0.173681
0.002399
0.111075
-0.024965
0.027710
0.079778
-0.116731
0.007857
-0.048692
0.105154
-0.163834
-0.085120
-0.034528
-0.010306
-0.057169
-0.005540
-0.040385
0.065373
0.083525
-0.091095
0.044720
-0.164122
0.083338
-0.071890
-0.067350
0.037139
-0.005844
-0.046814
0.000462
-0.047634
0.070491
0.078411
-0.093841
0.184576
0.113863
0.004755
-0.071161
-0.061371
-0.084909
-0.114809
-0.003439
0.056464
0.044667
0.055960
-0.002045
-0.051504
-0.056599
-0.086015
-0.008556
-0.009951
0.066919
-0.022328
-0.069712
-0.048023
-0.061698
-0.023081
0.016284
0.018417
0.017732
-0.100569
-0.090574
-0.060702
-0.008727
-0.049586
-0.057594
-0.030993
-0.061797
0.094379
0.075468
-0.000266
0.004079
-0.111373
0.069769
-0.086980
-0.015962
-0.078589
0.076836
-0.108553
0.190986
-0.015467
0.123490
-0.068429
-0.077190
-0.007224
0.031258
0.001832
0.012605
0.094735
0.017816
-0.146835
0.063065
-0.030835
-0.110080
-0.005513
-0.075669
-0.060264
-0.054327
-0.085352
0.019479
0.123723
0.055677
-0.016801
0.061045
0.020175
-0.017496
0.027207
0.124116
-0.001560
-0.135713
-0.028204
0.055827
0.032712
0.119080
0.013760
0.040917
0.009651
-0.000609
-0.011551
-0.084103
-0.056486
0.109615
0.053878
0.089028
-0.057803
-0.043894
0.061654
-0.113188
-0.117282
-0.054370
0.188147
-0.108309
0.196403
0.070651
-0.165672
0.058324
-0.045367
0.150132
0.090710
0.127891
-0.347399
-0.277790
0.038414
0.025546
-0.020055
0.003596
0.112706
0.160233
0.088127
0.050717
0.115586
-0.023293
-0.043364
-0.057327
0.024877
0.127195
0.016764
-0.020714
0.138704
-0.012676
-0.071771
0.026637
-0.087979
-0.012668
-0.021664
-0.079392
-0.089949
0.034863
-0.070434
0.106183
0.153106
0.072861
-0.069749
-0.155716
0.102628
-0.093110
-0.073455
0.103995
0.016390
-0.024346
0.034249
-0.116178
0.023663
0.042662
0.018967
-0.070480
0.111165
-0.047196
0.070607
0.079968
-0.084980
-0.040382
-0.067986
0.010244
-0.047431
-0.018573
0.083741
-0.065430
-0.058939
0.039484
-0.084952
0.079029
0.088931
0.142458
0.114892
-0.014183
0.133491
-0.041688
-0.012423
0.042633
0.141523
-0.005340
0.083138
0.149308
-0.046095
0.050577
0.097946
-0.078695
-0.086649
-0.084058
-0.070820
0.036861
0.072718
0.110131
-0.107829
-0.101353
-0.083183
0.033753
0.080847
-0.011985
0.061761
0.046054
-0.238017
-0.106800
0.029377
-0.025353
-0.026891
-0.110024
0.025416
0.038200
-0.156751
-0.093824
0.070307
0.005303
0.030804
0.104289
0.008888
-0.009132
0.023787
-0.049667
-0.039280
-0.074733
-0.034146
0.073870
-0.065120
0.144861
0.006169
0.006172
-0.059052
0.100871
-0.012025
0.073994
-0.115181
-0.089045
-0.051363
-0.048198
-0.053659
0.287751
-0.053917
0.063731
0.014012
-0.019210
-0.094598
0.110367
-0.019805
0.023921
0.025718
0.007588
0.157142
0.050666
-0.138264
-0.319956
0.060008
-0.046522
-0.354593
-0.084196
0.029187
-0.035043
0.061036
-0.014979
0.076425
-0.035265
0.009128
-0.054281
-0.045451
-0.010074
-0.069028
0.146045
-0.229375
-0.030289
-0.033608
0.088641
-0.040787
-0.086569
0.094127
0.067553
-0.021816
0.023456
0.157932
0.070367
0.005896
0.031804
0.101344
-0.044128
0.067046
0.090242
-0.056289
0.057979
-0.002962
0.001716
-0.034845
0.172175
0.150580
0.090413
-0.050791
-0.042283
0.024617
-0.004454
0.051166
-0.016790
0.043903
-0.099485
0.007436
-0.067612
-0.099585
0.100501
-0.035542
0.010758
-0.034392
0.044206
-0.035656
0.063153
0.016319
-0.045042
-0.003166
0.080767
-0.036268
-0.093280
0.085655
-0.009762
-0.022436
0.008811
0.019655
-0.099470
0.111142
0.026645
-0.087957
0.082026
0.135151
0.158447
-0.168725
0.097339
0.051502
0.004322
0.172171
0.079359
-0.011855
-0.174606
0.244325
0.259710
0.437415
-0.228718
0.050560
-0.420315
0.015236
-0.144007
-0.129108
0.244492
-0.000229
-0.051184
0.216912
-0.236580
0.013403
0.007363
0.042209
0.024181
-0.054941
0.106276
0.060919
-0.056607
0.164973
0.190423
0.209211
0.042687
-0.168593
0.423538
-0.100084
0.064568
0.109754
-0.115788
0.094034
-0.087524
0.431699
-0.219607
0.038745
-0.022153
-0.212764
0.187307
0.118932
-0.164771
-0.017934
-0.066259
0.071920
0.445500
-0.001964
0.058914
-0.235821
0.436252
-0.166415
-0.152525
0.017995
0.048740
0.142637
-0.118838
0.334705
-0.017404
0.085588
-0.101309
-0.005129
-0.098481
0.204534
0.329235
0.203655
-0.024730
-0.011674
-0.118568
-0.174791
0.133960
0.197806
0.107120
0.141890
0.023384
-0.074070
0.025861
-0.034568
0.148817
0.195713
0.091109
-0.251591
0.012114
0.100533
-0.142622
-0.031340
0.007234
-0.189664
-0.042955
-0.014340
0.214611
0.023134
-0.129498
-0.238230
-0.138191
0.179217
0.134168
0.301566
0.051816
-0.231541
-0.223602
-0.080881
-0.099647
0.025153
-0.190095
0.186536
0.336852
0.231853
0.040148
-0.048065
-0.289689
0.158428
0.060766
0.291978
-0.415202
-0.034323
-0.399807
0.044566
-0.047411
-0.102367
-0.039867
0.175849
-0.326832
0.308722
0.202018
0.777658
-0.597324
0.094256
0.134243
0.103017
0.061191
0.070825
0.362891
-0.018100
0.379650
0.171555
0.020274
0.211940
0.044547
-0.162253
-0.112734
-0.166827
0.151054
0.061674
0.052521
0.011112
-0.214747
0.153130
0.267069
0.362078
0.111600
0.215453
-0.061372
-0.125465
0.393769
0.181795
0.048219
0.045090
0.392013
0.128591
-0.243141
0.286259
0.317141
0.122878
0.098846
0.039242
0.062714
0.031173
0.050499
-0.175687
-0.062797
-0.058532
0.058049
-0.027483
-0.039995
0.003489
0.160750
0.357194
0.010655
0.072301
-0.129013
-0.093750
0.049827
-0.092484
0.172806
-0.109654
-0.067367
-0.252437
-0.016959
0.284340
-0.042894
-0.193065
0.079132
0.105629
0.029815
-0.122433
-0.022112
-0.171178
0.044692
-0.074818
0.168164
0.040379
-0.028403
-0.179718
-0.033813
0.132524
0.079198
0.064340
0.025123
0.234109
0.019482
0.077610
0.008047
-0.172284
0.098277
0.126650
0.007888
-0.035665
0.093007
-0.099397
0.157553
0.029065
-0.324638
0.001709
0.032538
0.019057
0.062274
-0.473363
-0.126161
-0.091947
0.053183
0.450376
0.004800
-0.090160
0.171531
-0.211747
-0.089804
-0.060888
0.184412
-0.077581
0.249526
0.225289
0.051689
0.034601
-0.002439
-0.032092
-0.059942
0.126327
-0.040457
0.098656
0.087375
-0.128767
0.003476
-0.023183
-0.061145
0.085586
-0.120664
-0.037285
0.048899
-0.085953
0.190388
-0.174649
-0.012935
0.000336
-0.191461
0.060294
-0.013482
0.235409
0.044181
-0.035460
-0.018197
0.015639
-0.075516
-0.036785
0.084628
-0.108276
0.018013
-0.021122
0.025278
-0.003935
0.128486
-0.060525
0.369118
-0.112522
-0.059968
-0.119882
-0.117039
-0.008976
0.073437
-0.121392
-0.016217
0.006398
-0.075015
-0.104320
0.048806
-0.248810
-0.132156
-0.068171
0.065330
0.058646
0.140876
-0.103706
-0.094980
0.035246
0.152852
0.003695
-0.133110
0.015600
-0.019870
0.080831
-0.115879
-0.171959
0.041168
-0.028770
0.008475
0.375436
-0.092584
0.028034
-0.077108
0.004566
-0.045601
-0.058083
0.020473
0.002812
-0.075080
-0.054404
-0.089036
-0.035005
0.042226
0.035463
0.176960
0.006440
-0.113783
-0.067716
0.085356
-0.048769
0.006379
-0.065088
-0.037931
-0.054682
-0.021908
-0.056055
0.063462
-0.097557
0.105503
-0.098360
-0.021068
0.086892
-0.233956
-0.056032
-0.080948
-0.070726
0.011766
-0.122680
0.150160
-0.081335
0.084703
-0.016499
0.066781
0.081080
0.026946
-0.023761
-0.105570
0.046035
-0.071724
0.134498
-0.106540
0.069183
-0.051114
-0.022828
-0.186828
0.119188
-0.017267
0.073982
-0.166929
0.091816
0.071222
0.045714
0.017091
-0.038029
-0.055748
-0.059044
0.114183
-0.038604
-0.042594
-0.138832
0.080362
0.040030
-0.050395
0.109347
0.064090
-0.050442
0.059009
-0.066454
-0.070165
-0.018457
0.161910
-0.034494
-0.056782
0.134046
-0.178915
0.033557
0.054540
-0.074370
-0.030763
0.009559
-0.070420
0.025388
0.051243
0.047553
-0.059585
0.041134
0.109027
0.265776
0.083717
0.029682
-0.002952
0.232208
-0.059549
0.016727
-0.099714
-0.164844
-0.107813
0.040388
-0.067710
-0.126503
-0.100226
0.036971
0.001827
-0.061961
0.072746
0.067617
0.015879
-0.035555
-0.082908
0.009893
0.080893
0.269332
0.048731
0.064910
-0.061398
0.129076
0.052891
-0.044223
0.053775
-0.003946
0.100009
0.142430
-0.077262
0.000252
-0.024013
-0.096077
-0.044333
-0.045455
0.014889
-0.043582
0.056114
-0.096687
0.124135
0.031683
-0.044816
-0.168321
-0.006746
-0.025133
-0.018156
0.409674
0.243159
0.075287
-0.178296
-0.011528
-0.062407
-0.096603
0.034216
0.051352
0.003143
-0.108529
-0.039487
-0.085247
0.025102
-0.432538
0.135351
-0.037934
0.065246
-0.065674
-0.240618
-0.177904
0.066192
-0.068593
0.109233
0.054597
0.024794
0.007590
0.072484
-0.080683
0.004860
-0.143646
0.081634
-0.041597
0.037083
0.084634
-0.018178
0.170985
-0.092857
0.052903
0.132607
-0.042459
-0.210507
-0.101517
-0.115024
0.022532
0.067404
0.043505
-0.023253
0.017155
0.141794
0.014829
0.062019
-0.134163
0.121873
0.036885
0.029508
-0.038450
0.054072
0.145711
0.039033
-0.107635
0.038194
-0.085917
0.014456
-0.063086
0.121176
0.095428
-0.008600
0.293690
-0.028134
-0.020740
0.080107
-0.210788
0.046995
-0.044115
-0.023344
0.040112
-0.130284
0.051325
-0.049671
-0.011127
0.082048
0.026627
-0.000336
0.068058
0.007057
-0.115761
-0.039442
-0.126110
0.012501
0.033834
0.001592
0.060133
0.062713
0.001593
-0.093773
-0.008792
0.023596
-0.209233
-0.023444
-0.108307
-0.015000
-0.119275
-0.051878
0.017469
0.103175
0.153623
-0.046280
-0.018379
-0.007187
-0.059843
-0.076645
-0.160191
-0.166700
0.028907
-0.075290
-0.060785
-0.102695
-0.037834
-0.024757
0.058060
0.083613
-0.058667
0.021863
0.016966
0.066583
-0.134532
-0.049701
0.060250
-0.114799
-0.078503
0.287845
-0.048746
0.032189
0.292875
-0.058153
0.032542
-0.124416
-0.011447
0.134801
0.114081
0.098579
0.035099
-0.098138
-0.009158
0.083461
0.184704
0.043682
-0.006114
0.109368
0.092316
-0.069026
-0.011377
-0.191163
0.115251
-0.100286
-0.142888
-0.018249
-0.060440
0.037755
0.021215
0.031167
0.031973
0.031167
0.013906
0.032600
0.065309
-0.025180
-0.308479
-0.159331
-0.188675
-0.024689
0.016553
-0.025826
0.102020
-0.037506
-0.206673
-0.117770
-0.015532
0.011714
-0.031650
0.101375
0.087575
0.040144
-0.039551
0.062478
0.066499
-0.062657
0.045441
0.082556
0.038119
-0.049784
-0.071811
0.091570
-0.090267
0.054476
0.023793
-0.083009
-0.057108
-0.033816
-0.052552
-0.037583
-0.057861
-0.009437
0.120459
-0.057941
-0.026999
-0.070559
0.108700
-0.009435
-0.016494
0.098565
-0.241095
-0.015069
-0.082832
0.318382
-0.015001
0.013724
-0.045493
-0.063425
-0.131640
0.097975
0.118952
-0.060805
-0.052613
0.009164
-0.053400
-0.019894
-0.022793
-0.007500
-0.000173
-0.048496
-0.081939
0.115710
-0.234492
-0.037914
0.186141
0.111522
0.146355
0.045460
0.054467
0.027741
-0.218931
-0.114683
0.083343
-0.078397
-0.084453
0.040744
0.131787
0.018411
0.072513
0.015957
0.063421
0.024723
-0.037177
-0.080771
0.154333
-0.054534
0.042876
0.070574
0.020188
0.099403
-0.192116
0.048131
-0.075971
-0.061269
0.085198
0.030320
0.200123
0.095711
-0.159025
0.100256
0.041396
-0.087722
0.198627
-0.054448
-0.090771
-0.099996
-0.021519
-0.008191
-0.032386
0.004767
0.109481
0.006268
0.020930
0.171421
-0.036359
0.020727
0.024883
0.010074
-0.122482
-0.026310
0.110614
-0.000624
-0.009140
0.094214
0.245891
0.123545
-0.169627
0.117163
0.169645
-0.067671
-0.017056
0.159192
0.075450
0.119219
0.132830
-0.045443
0.068711
0.334818
-0.173456
0.112830
0.000290
0.063444
-0.056833
-0.046564
-0.326308
0.072463
-0.059075
0.043141
0.079300
-0.163780
-0.077075
0.056993
0.046666
0.033842
0.284146
-0.023460
-0.396394
-0.040249
0.002588
-0.427176
-0.062558
-0.056863
0.124661
0.136066
-0.183640
-0.053805
0.108117
-0.123893
0.006161
0.156040
0.206462
-0.063921
-0.021913
-0.255031
-0.012436
0.251343
0.069993
-0.270577
-0.058308
0.300269
-0.018875
0.296200
-0.151735
0.251453
-0.119491
-0.185998
-0.085399
0.124630
0.482139
0.012500
0.181226
-0.077274
-0.069021
0.014877
0.083618
-0.214278
0.068665
-0.055490
0.035269
-0.215128
-0.003417
-0.142880
-0.125363
0.090998
-0.192978
-0.040413
-0.184848
0.124311
-0.024045
-0.102029
-0.129314
-0.003340
-0.072705
-0.326437
-0.156100
0.345691
-0.055727
0.146035
-0.057604
-0.105812
-0.154361
0.022871
0.143357
-0.037521
-0.189588
-0.579831
-0.231601
-0.167715
0.077744
0.116524
0.040296
0.203576
-0.032685
0.112593
-0.065260
-0.010684
-0.225314
0.177135
0.077409
-0.150131
0.130822
0.218292
0.006046
0.553693
-0.010816
0.288824
-0.094610
-0.161120
0.077490
0.078399
-0.068308
-0.075609
-0.085976
-0.135371
0.120510
0.037156
-0.088215
0.335874
-0.196971
-0.251170
0.057803
-0.356611
-0.353759
0.146190
-0.023369
0.079592
-0.054090
-0.143433
-0.335350
0.083748
-0.136322
-0.254025
0.104029
0.071067
-0.066022
-0.203509
0.043465
-0.102139
0.022369
0.139001
-0.377926
0.062110
0.017630
0.009308
0.048081
0.162512
0.026786
0.047359
0.036545
-0.321207
0.111470
0.081619
0.032871
0.041427
0.104979
-0.015595
-0.154133
-0.274092
0.060147
-0.102938
-0.182938
0.177780
-0.038386
-0.025750
0.023492
0.042964
-0.094121
0.101010
-0.137842
0.044381
-0.017128
-0.320224
-0.087215
0.258380
-0.070097
-0.079559
-0.407562
0.544329
0.139600
-0.008173
-0.284211
-0.109674
0.060272
-0.024320
-0.270373
0.180314
-0.042208
-0.068933
-0.039530
0.138275
-0.052846
-0.163418
-0.018523
0.134613
0.334030
-0.070197
-0.246024
-0.274484
0.013031
-0.083535
0.077548
0.089737
0.097159
-0.088172
-0.042493
-0.006107
0.015162
0.040054
-0.118931
-0.077092
-0.086785
-0.024528
0.359399
-0.527292
-0.405317
0.100049
0.084082
0.067619
-0.014061
0.337561
0.135174
-0.144941
0.269852
0.286882
0.063598
0.046553
0.079262
-0.147665
-0.166447
-0.083088
-0.274621
0.223528
0.128622
-0.037691
0.140315
-0.086899
-0.053209
0.100730
-0.171545
-0.063890
-0.020705
-0.147406
-0.208320
0.045216
0.129420
-0.046858
-0.136477
-0.036485
0.038916
-0.001615
0.042387
-0.064176
-0.159461
-0.520086
-0.143329
0.091026
-0.096090
0.211017
-0.036534
0.029326
-0.184310
0.003239
0.010501
0.064596
0.110611
0.056823
-0.064423
-0.015856
0.023003
0.059466
0.120913
0.254350
-0.204784
0.102130
-0.169312
-0.211142
-0.131457
0.386892
-0.098025
0.099210
0.178544
-0.042148
-0.371330
0.041664
-0.124521
0.116528
0.097375
-0.020352
-0.092010
0.237880
-0.222951
-0.193217
-0.072917
0.324553
-0.028540
-0.032204
-0.466058
-0.304904
-0.188603
-0.255717
0.036000
-0.065036
-0.019627
-0.225369
0.003685
0.025372
0.053994
0.279347
-0.172037
-0.162383
-0.043447
-0.190041
-0.188294
-0.104004
0.095733
-0.079029
-0.003742
-0.031397
-0.569649
-0.001627
0.021238
-0.198071
-0.201444
-0.038396
0.269897
-0.025144
0.148280
0.036327
-0.117685
0.128175
-0.075375
0.047258
0.024687
-0.021741
-0.193675
0.019989
-0.059509
0.289353
-0.111329
0.045821
-0.333328
0.003824
-0.100520
0.072656
-0.257408
0.255342
0.562934
0.266936
0.105426
0.084450
-0.098005
-0.053597
0.174359
-0.128813
-0.678391
0.167020
0.102984
0.252876
-0.226340
0.094212
-0.153306
0.140697
-0.320618
-0.532717
-0.031478
0.110793
-0.049073
-0.129337
-0.047434
-0.007733
-0.265055
-0.200049
0.259922
0.440076
0.147703
0.168535
0.320609
-0.020262
0.381730
-0.303747
0.144247
0.058655
-0.140352
0.131589
-0.315811
-0.132273
-0.058233
-0.386390
-0.245477
0.015729
0.146856
0.159688
-0.047893
0.171162
-0.071610
0.054641
-0.142975
-0.066582
0.049601
-0.110842
-0.157434
-0.151543
0.167498
-0.085968
-0.080231
0.252162
0.035428
-0.027246
-0.053980
-0.024262
0.276310
-0.062293
-0.106668
-0.507037
-0.002964
-0.154181
-0.155839
-0.097239
-0.083268
0.214698
-0.330794
-0.008164
-0.048988
0.431813
0.342515
0.007640
-0.137249
-0.028344
-0.035772
0.601029
0.487138
-0.037666
0.074038
0.286329
0.078776
0.063441
-0.204402
0.202385
-0.126716
-0.008517
0.084655
0.109862
-0.213446
0.003201
-0.092614
-0.027476
-0.127150
-0.178490
0.328005
-0.077351
0.064788
0.164301
0.424452
0.133023
0.056112
0.067427
-0.000478
0.080824
0.108537
0.197759
0.237341
0.068260
-0.231436
0.071708
-0.020761
0.064737
-0.103654
-0.102680
0.487760
0.235928
0.221731
-0.023161
-0.018393
-0.127490
-0.356126
-0.012586
0.188056
-0.087529
-0.183812
-0.136209
-0.055058
-0.005894
-0.151416
-0.117079
0.007837
-0.483974
-0.095368
0.146406
0.133245
-0.235552
0.278043
0.185894
0.283000
0.092151
-0.013746
-0.364872
-0.095474
-0.316656
0.114086
-0.219898
0.052817
-0.063866
-0.003374
0.230220
-0.130147
0.012237
0.389659
0.018865
0.080158
0.425440
0.045822
-0.063774
-0.031948
0.004246
-0.155670
0.016657
0.166727
-0.031769
0.061975
-0.423941
0.016597
-0.069600
-0.054177
-0.061755
-0.151949
0.094380
0.296100
0.078651
-0.261043
0.070042
0.079112
0.118935
-0.182049
-0.154846
-0.177200
0.084726
-0.031561
-0.214749
-0.318030
0.051838
-0.011680
0.035464
0.231762
0.099254
0.097513
0.034136
-0.043753
-0.338538
0.214316
0.339496
0.078099
-0.249561
0.238522
0.116717
0.196271
0.176373
0.178169
0.100049
-0.094552
-0.002689
0.371526
-0.015326
-0.234729
0.285834
-0.163283
0.107184
0.023749
0.013047
-0.243931
-0.112129
0.136561
0.206274
0.005830
0.158211
-0.056886
0.337599
0.122723
0.137186
-0.519759
0.055448
0.337919
0.068127
-0.181547
0.056737
-0.063775
-0.033729
-0.137225
-0.285742
-0.080804
-0.227323
-0.023622
-0.137256
-0.019424
-0.046429
0.126725
-0.390904
0.175329
0.459341
0.103181
0.062342
0.088674
0.349844
0.262021
-0.043198
-0.073073
-0.128245
0.016098
-0.104680
0.467795
-0.035505
0.060559
0.161524
-0.228061
-0.054414
-0.084326
0.138846
-0.044501
0.379658
-0.168852
0.472796
0.048757
0.071867
0.251965
0.098276
-0.053463
0.690546
-0.244884
-0.192670
0.063798
0.393600
0.148412
0.129144
0.015473
0.296903
0.144956
-0.305847
-0.191140
0.269752
-0.108417
-0.096185
0.194365
0.051161
0.098487
0.423178
-0.107902
0.153141
0.119943
-0.064432
-0.304669
-0.102652
0.105048
0.342880
0.012259
0.010671
0.173623
0.068750
0.028848
0.036243
-0.026646
-0.146031
-0.031997
0.128745
0.120440
0.242506
0.066755
-0.069940
-0.127249
0.173112
-0.612028
0.384825
0.157436
-0.146339
-0.369192
-0.068162
-0.018862
-0.795699
-0.212863
-0.023534
-0.144219
-0.138687
-0.189652
-0.297621
0.027912
-0.200419
-0.066138
0.098914
0.080508
0.160789
-0.051147
0.247539
-0.028779
0.191434
0.000423
-0.045482
-0.226230
-0.140612
0.467718
-0.097436
0.418696
-0.151162
0.084028
-0.066268
0.087161
0.540202
-0.127521
-0.217224
0.117210
0.272083
0.114121
-0.034897
-0.054466
0.094096
0.177485
-0.083815
-0.045913
-0.029690
-0.292530
-0.025319
0.098021
-0.003378
0.129305
-0.023451
-0.245769
-0.176824
0.174643
0.025777
-0.203981
0.066858
0.269872
0.085214
-0.175782
0.076215
-0.205420
0.042779
-0.157302
0.042583
-0.101008
0.023996
0.051498
0.047585
-0.015650
-0.397699
0.173088
-0.161451
0.153649
-0.009963
0.117276
-0.206817
0.372846
-0.192794
0.069796
0.099237
-0.002848
0.016326
-0.012154
0.132693
-0.043008
-0.092155
-0.013922
0.068549
0.022435
0.030443
0.065038
0.171696
-0.022490
0.009864
-0.044522
-0.111540
0.257451
0.068366
0.208942
-0.083685
-0.142836
0.045248
0.020166
-0.089811
-0.061066
0.205240
0.100393
-0.071876
0.025985
-0.101300
-0.012353
0.104976
0.019552
0.336390
-0.002964
-0.084130
-0.315281
-0.236723
0.007215
0.018093
0.000428
-0.065401
0.038580
0.048243
0.103238
0.024979
-0.081836
0.085811
-0.024646
-0.131379
-0.115526
-0.017170
0.041986
-0.052282
-0.085825
-0.152209
-0.017914
-0.129530
-0.076517
-0.009712
-0.077533
0.067893
-0.074482
-0.033452
0.000664
0.043314
0.406830
0.041580
-0.030693
-0.201704
-0.034856
-0.070879
-0.110923
-0.039312
0.134620
-0.078681
-0.066376
-0.066086
-0.162743
0.156372
-0.058103
-0.159371
-0.058219
-0.111279
-0.012635
0.105116
-0.109699
-0.012782
0.108053
0.025146
-0.131375
-0.062955
-0.040844
-0.036553
0.154470
0.177642
-0.015039
0.007719
-0.082888
-0.022511
0.168455
-0.118229
0.191069
-0.011291
0.013977
0.071978
-0.110082
0.115769
0.042457
0.100327
-0.007878
-0.010061
-0.004679
-0.080072
-0.029234
-0.054874
-0.170256
0.094142
0.047418
-0.074296
0.031983
-0.041240
0.134758
0.015389
0.272556
0.088020
0.053372
-0.064336
0.012107
-0.056536
-0.046903
-0.040661
0.007539
-0.003460
-0.002425
-0.133392
0.108610
0.003103
0.037145
-0.018762
-0.001299
0.059392
-0.122581
0.026608
-0.062849
-0.024699
-0.003871
-0.046133
0.013472
-0.072613
-0.059382
-0.059168
0.022891
-0.161355
0.033553
0.066289
-0.014819
-0.022243
-0.073680
-0.021527
0.052470
-0.019631
0.058069
0.002729
0.086415
-0.086697
0.019631
0.026143
0.096802
-0.038061
0.041871
-0.093920
-0.150379
-0.018131
0.050981
0.025043
0.040158
-0.095200
-0.064902
-0.102614
-0.031098
0.115871
-0.084289
-0.107730
-0.046499
-0.034782
-0.096930
0.054699
0.093874
-0.027175
0.069817
-0.045645
0.042576
0.055882
-0.148473
0.030435
-0.017907
-0.033898
-0.101383
-0.102019
0.035613
0.079675
-0.041685
0.071154
-0.044143
-0.019938
-0.077769
0.000839
0.121252
0.000679
0.006746
-0.074122
-0.071634
0.062294
-0.182512
-0.000988
0.120987
0.193314
-0.130244
-0.074445
-0.203606
0.066407
-0.139721
-0.142193
0.010693
-0.042284
-0.030183
-0.059078
-0.061238
-0.017896
-0.168549
0.030294
-0.097816
0.111180
-0.041638
-0.107465
-0.190755
-0.156446
0.076116
-0.036562
0.126613
0.103642
0.011789
-0.023416
0.073634
0.053375
0.042854
0.050347
0.026688
0.036930
0.020092
-0.035757
0.104574
0.004218
-0.005473
0.008899
0.112370
0.095757
-0.014838
-0.103979
0.014316
-0.140261
-0.014170
0.002362
-0.004870
-0.122390
0.049705
-0.095541
-0.119736
-0.135871
-0.120353
0.006068
-0.060943
0.060551
0.147567
0.100238
-0.034420
0.041731
0.041983
-0.118211
0.077425
0.035757
-0.021878
-0.010813
0.182396
-0.143828
0.032341
-0.023443
-0.124285
-0.066865
0.032882
-0.049929
-0.148910
-0.097269
-0.058500
-0.060498
-0.196302
0.055949
-0.099773
-0.099437
-0.080722
-0.050623
0.022015
-0.021643
-0.075578
0.077095
-0.109865
0.082473
0.028861
-0.001897
0.095545
-0.048244
-0.019469
-0.097212
-0.056683
-0.081437
0.056763
0.067125
-0.115371
0.049189
-0.166505
-0.061003
-0.110731
0.056880
-0.038781
-0.098570
0.122838
-0.020095
-0.155842
-0.074841
-0.022310
-0.014346
0.066962
-0.089636
-0.005565
0.066504
-0.092697
0.129886
-0.010698
0.017307
0.036334
0.139665
-0.089090
0.020608
0.094719
0.010370
0.055852
-0.038268
0.000215
-0.008732
-0.064918
0.067878
0.081506
-0.114707
0.024894
0.166410
-0.071268
-0.035463
-0.074982
-0.052457
-0.005333
0.038584
0.003561
-0.062144
0.077378
0.004630
-0.006510
0.113444
-0.040523
-0.155643
-0.095014
-0.078695
-0.033159
0.085510
0.037243
-0.024305
-0.023714
0.010285
-0.114986
0.076963
-0.138842
-0.082385
0.043482
0.024517
-0.143106
-0.064843
0.037757
0.051354
-0.102798
-0.087820
-0.160968
-0.005023
-0.010157
0.089355
0.020615
-0.021547
-0.109164
-0.090232
-0.030042
0.012034
-0.058493
0.057793
0.118281
-0.027889
-0.054280
0.046573
0.027559
0.006506
-0.095669
0.017000
-0.000253
-0.119637
-0.054512
-0.038838
0.056351
-0.189069
0.018787
0.022086
-0.001707
-0.035054
-0.060006
0.062787
-0.055597
0.114361
-0.005931
-0.042976
-0.055148
0.018693
-0.029155
-0.007695
-0.067789
-0.015354
-0.082433
-0.169227
-0.025818
-0.077435
-0.139985
-0.055630
-0.004414
0.042292
-0.123621
-0.006050
0.076261
0.071684
-0.095217
0.098662
0.016817
0.011711
-0.185186
-0.064602
0.007007
0.088685
-0.061949
0.002633
0.120587
0.071962
0.055756
0.010026
-0.130030
0.074340
-0.006362
0.044749
-0.001474
-0.028676
-0.062817
0.031382
0.069733
-0.008663
-0.027535
0.000186
0.124174
-0.029158
-0.023106
-0.005126
0.011166
0.065815
-0.095010
0.075567
-0.093387
-0.013076
-0.047375
0.140407
-0.110000
-0.014329
-0.037628
0.067255
-0.170003
0.123003
0.027835
-0.010449
-0.023225
0.059757
0.078762
-0.123450
-0.169419
0.032506
0.108934
0.113528
-0.015780
0.102834
0.053242
-0.025492
-0.050296
0.003301
0.113799
-0.027205
-0.125932
-0.029250
-0.056215
-0.048595
0.110879
0.000410
0.092641
0.394731
-0.017269
0.004687
0.036352
0.091068
-0.126988
-0.466178
-0.243737
0.057888
0.039455
-0.009346
0.062867
-0.169917
0.169858
0.065869
-0.264112
0.159377
-0.092501
0.029048
-0.372442
0.169481
-0.061810
-0.275558
-0.064704
-0.203881
0.073602
-0.053016
-0.031370
-0.203256
-0.196698
0.128674
-0.066092
0.100718
-0.168096
0.473505
0.118376
-0.118441
-0.058357
-0.011380
-0.014935
-0.269557
-0.031822
-0.055454
-0.066854
0.159761
-0.139584
0.202739
-0.122645
-0.052550
-0.160128
-0.059481
-0.113559
0.034786
0.062219
-0.002961
-0.157744
0.296556
-0.148333
-0.228829
0.055277
-0.103808
0.338592
-0.035383
0.002861
0.065729
0.068024
-0.164498
-0.281217
0.191111
-0.130373
0.021843
0.248329
-0.004265
-0.029040
-0.167840
-0.062656
-0.099631
-0.310548
0.038531
-0.047712
0.067129
-0.025124
-0.084659
0.184820
0.030192
0.016463
0.319768
-0.318093
-0.244336
-0.084928
-0.162637
-0.094804
0.371996
0.106335
0.039539
-0.057998
0.169600
0.062920
0.307453
-0.016542
-0.332724
-0.105044
0.311978
-0.236243
-0.111342
-0.153024
-0.014068
-0.509297
0.228902
0.021110
0.506155
-0.112086
0.031620
-0.664718
-0.044380
-0.310842
-0.078695
0.139592
0.341614
0.116819
-0.302118
-0.049462
-0.615467
-0.125373
-0.161279
0.182282
0.044765
-0.096959
-0.371130
0.294550
-0.009225
0.134382
-0.564160
-0.015791
-0.113542
0.044536
0.324309
0.032771
-0.015534
0.220053
0.278948
0.102810
-0.076315
0.183141
0.101824
-0.199243
-0.418794
0.065808
-0.190620
0.009116
-0.020478
0.006420
-0.360141
0.084716
0.014501
-0.172275
0.151995
0.216656
0.042838
-0.245203
-0.112421
-0.017436
-0.029924
-0.125504
-0.218937
-0.194956
-0.162063
-0.136481
0.040508
0.030439
-0.122996
-0.318083
-0.220779
-0.209014
0.048190
0.064648
-0.008298
-0.042698
-0.073052
0.059211
0.020525
0.153082
0.029601
0.306916
-0.064703
-0.014848
-0.053008
-0.291854
0.539893
0.079883
-0.039114
-0.301937
-0.053754
-0.030825
-0.093491
-0.234840
0.310442
-0.310980
-0.085580
0.228300
0.091174
0.046692
-0.093720
-0.074597
0.008452
0.171549
0.905925
0.275303
0.022272
0.051632
-0.120504
-0.141165
-0.081488
-0.030551
0.091343
0.041440
0.055063
0.107793
0.137744
0.199451
-0.072899
-0.004243
-0.184533
0.071495
-0.108043
-0.194853
0.425054
0.435408
-0.065071
0.049042
-0.163720
0.271861
-0.053135
-0.045620
-0.183388
0.191866
0.062583
0.303819
-0.214926
-0.000434
-0.067889
-0.133429
0.220319
0.015976
0.183273
-0.139331
-0.114547
-0.233489
-0.155962
0.304320
-0.026872
0.165616
-0.136149
0.060872
0.017181
-0.214675
-0.154014
-0.039516
-0.004753
-0.204739
-0.243560
-0.137063
-0.056731
-0.144078
-0.122664
0.526539
0.009177
0.259867
-0.728570
-0.317676
-0.141057
0.144690
-0.021651
-0.227235
-0.048542
0.285681
-0.067063
0.020079
0.224544
0.342145
-0.038268
0.212447
0.191625
-0.088689
-0.055165
0.121537
-0.017026
-0.681303
-0.209307
0.155443
0.365442
-0.024319
0.342581
-0.154639
-0.259382
0.029828
-0.104388
0.048454
-0.222610
-0.210268
0.084676
0.082998
0.095174
-0.333090
-0.094754
-0.216163
0.037567
0.326041
0.310583
0.308308
-0.173932
-0.047595
-0.066222
0.024667
0.702832
-0.120897
-0.023247
0.063541
-0.129592
-0.087247
0.052307
0.059965
-0.025096
-0.012187
0.055869
0.384012
-0.292634
-0.261921
-0.392308
0.194475
-0.218263
-0.059004
-0.193279
-0.106054
0.184974
0.006227
0.141855
0.504630
0.003582
0.102463
0.050101
-0.270642
0.079852
-0.189521
0.228506
-0.047440
0.009831
-0.027237
-1.038243
-0.354302
-0.153218
0.136732
-0.085990
0.174655
-0.014534
-0.212945
0.053998
0.025353
-0.256417
0.091709
0.296993
0.008371
0.047625
0.344794
0.039726
-0.070963
-0.109890
0.152283
-0.040715
0.263687
0.118357
-0.000950
0.017911
-0.012626
0.120103
0.466917
0.000866
-0.084975
-0.370334
-0.028440
-0.041531
-0.237149
0.152849
0.053974
-0.079075
0.065778
-0.132994
0.099225
0.167434
0.124687
0.051061
-0.027269
0.133379
-0.347298
0.159344
-0.384910
-0.127423
-0.037334
-0.159806
0.227823
-0.081196
0.061357
0.179499
-0.386860
-0.120610
0.120117
0.004119
-0.105093
-0.082170
-0.011770
0.212962
0.051404
-0.143117
0.036112
0.129175
0.116944
0.674344
-0.105582
0.103542
0.107311
0.232162
-0.107209
-0.008191
0.153263
-0.044940
0.024532
-0.174231
0.066137
0.172407
-0.006056
0.073107
0.060312
0.058453
-0.069544
0.218743
0.083868
0.153582
-0.098306
0.071461
-0.289856
-0.088114
-0.045415
0.252369
0.083686
-0.071455
0.097627
-0.002112
0.057364
-0.547447
-0.367678
-0.118697
0.228499
-0.049356
0.190366
-0.002991
-0.234575
0.331151
0.011021
-0.024396
0.098945
-0.297523
-0.190705
-0.388744
0.149238
-0.276868
-0.111051
0.101187
0.073540
0.104546
0.092902
-0.214642
0.395879
0.027740
0.107534
-0.257413
0.252345
0.172578
0.036461
0.108532
0.010921
0.119399
0.253823
0.015528
0.009410
-0.351346
-0.365089
-0.146327
-0.109755
0.129772
-0.059152
0.069274
0.147785
0.004203
0.461221
0.613604
0.105024
-0.044671
0.082014
-0.006201
-0.147860
-0.053575
0.111159
-0.139553
0.241421
-0.116831
-0.393389
0.067174
0.194491
-0.254102
-0.208902
-0.114315
-0.126897
-0.086072
-0.025784
0.058879
-0.115466
-0.078814
0.080027
0.201731
0.203174
-0.077141
0.060121
0.016623
-0.312092
0.288405
0.088766
0.014194
0.047860
0.161824
-0.114139
-0.097144
0.066062
0.042451
-0.019130
-0.064325
-0.043509
0.089392
0.083877
0.020342
0.042162
-0.073242
0.279846
0.009611
-0.018269
0.022388
-0.055306
-0.111256
0.197580
-0.230987
-0.120516
-0.054269
0.002563
-0.091411
0.262063
-0.043171
0.045363
0.050640
0.035480
-0.054610
0.085544
-0.147352
0.047535
0.144154
0.067274
0.183387
0.010767
0.127059
-0.036273
-0.308497
-0.135103
-0.277291
0.065389
0.084114
-0.337069
-0.047288
-0.019269
0.021034
-0.018882
-0.188636
0.081485
-0.320271
-0.023329
-0.124564
-0.121473
0.126483
0.035177
-0.137814
0.060696
-0.069169
0.093783
-0.028843
0.104306
-0.006675
-0.022111
-0.063702
0.196410
-0.115019
-0.307389
0.002528
-0.105593
-0.034537
-0.162267
-0.065812
-0.004823
-0.098591
-0.153536
0.014372
0.042204
-0.079978
0.006156
-0.104829
-0.166199
0.164740
0.052473
-0.182217
-0.061653
0.156876
-0.009569
-0.023454
0.136313
-0.017269
-0.140904
0.158207
-0.206202
0.083929
-0.066174
0.023284
-0.009087
0.089687
0.002142
0.073571
0.072140
-0.155816
0.027153
0.059821
0.052849
0.063246
0.069882
0.028463
0.197196
0.091555
-0.177856
-0.123862
-0.081312
-0.271812
0.133046
-0.148488
-0.127550
-0.031305
0.124884
0.003170
0.091332
0.243097
-0.192092
-0.010873
-0.214037
-0.091318
-0.010404
0.094375
0.029360
-0.075175
0.120209
-0.143904
-0.139806
-0.093508
-0.084398
0.108614
0.285371
-0.039334
-0.074506
-0.050289
0.057478
-0.172174
-0.050402
-0.105658
0.110661
0.271154
-0.078839
-0.134224
0.148400
0.030524
0.073678
-0.039728
0.012772
-0.045365
-0.191579
-0.145542
0.032257
0.244926
0.015319
-0.047009
0.061869
-0.005223
-0.157082
-0.191628
0.128793
-0.022001
-0.023079
-0.034175
0.075425
0.331981
-0.057476
-0.118515
0.000217
0.289044
-0.103324
-0.017697
0.140552
-0.115010
0.074327
-0.045508
0.059528
-0.094226
-0.127213
-0.195594
-0.004925
-0.247533
-0.073013
0.014180
0.280414
-0.060841
-0.285637
0.015118
-0.073092
0.005279
-0.076242
-0.054255
0.082773
-0.033698
0.128505
-0.159603
-0.039826
0.076093
-0.019430
-0.106272
-0.025399
0.050636
-0.225060
0.094686
-0.033228
-0.103423
-0.298732
-0.085896
-0.040452
-0.021044
-0.167304
-0.025113
-0.136363
0.054917
-0.042782
-0.168348
-0.084976
0.012168
0.076440
0.077437
-0.057537
0.033569
0.145022
-0.099252
0.147022
-0.208713
-0.153438
-0.241654
-0.142030
-0.161210
0.064070
-0.004560
0.012793
0.062635
0.335093
0.000706
0.015433
0.267568
-0.020179
0.478024
-0.439917
-0.038566
0.260222
-0.011812
0.346188
0.038928
-0.281593
-0.205024
0.121482
-0.106393
-0.156947
0.013135
-0.267104
-0.316762
-0.062833
0.204265
-0.298037
-0.047267
-0.100851
0.243007
0.232125
-0.157821
0.144547
0.160908
-0.052828
-0.030053
0.132690
-0.239753
0.130802
0.146332
-0.039052
0.007931
0.097969
0.134543
0.303414
0.412598
-0.272338
0.316608
-0.162679
0.025670
0.298438
0.169481
-0.143583
0.444621
-0.286685
0.454769
0.042332
0.217676
-0.380416
0.042258
-0.217986
-0.208698
-0.061495
-0.083754
0.274492
0.109608
0.060837
0.241186
0.133765
-0.069953
0.211093
0.147121
0.210162
0.085747
0.030872
-0.119679
0.056403
-0.033202
-0.165801
0.035112
0.148418
0.119119
0.009599
0.115714
0.453429
-0.116176
0.266432
0.157133
0.067234
0.212467
-0.137036
0.252766
-0.292580
0.099089
-0.232663
-0.211891
0.203573
0.210984
-0.081969
-0.073285
0.256585
-0.199919
-0.342981
-0.160911
0.015369
-0.080537
0.280284
-0.560329
0.383316
0.024421
-0.159780
-0.219741
0.184132
0.051869
0.271678
0.154816
0.326706
-0.035331
0.566488
0.149363
0.273717
-0.145233
0.056876
0.107653
-0.191681
-0.070891
0.086207
0.013833
0.050833
-0.106924
-0.200296
0.218952
-0.017217
-0.101363
0.310125
0.015687
0.121808
0.099674
-0.094266
0.188611
-0.146299
0.342984
0.050144
-0.480265
-0.111765
-0.033032
0.300584
-0.134211
0.153823
-0.374654
0.257734
0.090690
-0.419261
-0.089963
0.029707
0.067050
0.078105
0.075457
0.140146
-0.063277
-0.137693
-0.049383
0.114455
0.070841
0.137998
0.019262
-0.169975
-0.307891
-0.062906
0.140235
0.270990
0.407193
0.034238
-0.056267
0.050188
-0.464608
0.220915
0.398047
0.199993
-0.002857
0.127588
-0.753782
-0.008895
-0.045881
-0.014081
-0.316725
-0.229195
0.170725
-0.031554
-0.197983
0.025956
-0.411397
0.036561
0.097009
-0.002248
0.064440
0.055472
0.047328
0.113830
-0.054511
-0.190835
0.160763
0.010275
0.344847
0.095576
-0.200274
0.007237
0.055640
-0.128475
0.562933
0.045481
0.079341
0.235940
-0.317681
-0.005364
0.261016
0.121833
0.136628
0.089503
0.072334
0.071161
-0.051111
-0.229015
0.093561
-0.182291
-0.052581
-0.068936
-0.049275
0.099924
-0.086866
0.181193
-0.001487
-0.166571
0.006500
0.037033
-0.128888
0.125089
0.267124
0.060164
0.146772
0.209680
0.211388
-0.150496
0.045729
-0.167380
0.093270
0.023975
0.344438
-0.273634
0.105104
-0.059210
0.151177
-0.007066
-0.037405
0.001469
-0.056263
0.112726
0.108883
0.026371
-0.069843
0.044531
-0.058102
-0.192339
0.384950
-0.088813
0.259954
-0.090758
-0.184731
-0.354058
0.045955
-0.023934
-0.275108
-0.026366
0.030864
0.080194
0.105705
-0.269863
0.021104
-0.232885
-0.012074
0.084728
-0.368295
0.060907
0.328518
-0.093118
0.036898
0.109977
0.066734
0.102089
0.024547
0.288433
0.049816
-0.091522
-0.038151
0.131680
0.181623
0.116643
-0.059698
-0.194556
0.074323
-0.022830
0.206084
-0.081888
0.091154
0.134200
-0.255619
-0.027833
0.032446
0.251047
0.079216
0.013129
0.177206
0.082520
0.045439
0.274401
-0.032038
-0.020082
-0.314610
0.220264
-0.111548
-0.108936
0.099378
-0.017684
0.081381
0.212114
0.210344
0.007425
0.158146
-0.325986
0.048044
0.209172
0.101540
-0.004584
0.032287
-0.075564
0.181401
-0.386269
0.126107
-0.045054
-0.137465
-0.016171
-0.032044
-0.400813
-0.075243
-0.040363
0.158700
0.067548
0.085511
-0.208284
0.088859
0.088370
0.205648
0.170492
-0.075280
-0.211862
0.393877
-0.152351
-0.141443
0.018549
0.063268
-0.011287
0.010795
-0.000776
0.314164
0.254344
0.019578
-0.025617
-0.030802
-0.196990
0.013790
-0.527370
-0.032696
-0.058057
0.061156
-0.346701
0.040464
-0.007851
-0.088872
0.190077
0.057564
-0.012239
0.533752
-0.078754
0.011974
0.122802
0.215766
-0.049485
-0.415151
-0.527860
0.073508
0.271564
0.580871
-0.153597
-0.025592
0.176264
-0.103944
0.091413
-0.092099
0.316844
-0.060030
0.127969
-0.019665
0.106683
-0.090495
0.039838
0.044782
0.245176
0.166688
0.148485
-0.210529
-0.182252
0.092337
-0.080041
0.051962
-0.336366
0.042659
-0.027446
-0.190218
0.044816
-0.255744
0.214486
0.104347
0.158180
-0.047840
-0.094984
-0.015416
-0.157156
0.154226
0.512498
0.133649
-0.275134
0.194363
-0.131061
-0.084420
0.067100
0.132410
-0.262392
0.266157
-0.321935
0.030290
0.055602
-0.493905
0.096092
0.098375
0.047582
-0.262034
-0.076614
0.286268
0.034365
-0.000042
-0.281901
-0.219717
0.491296
0.053801
-0.190787
-0.003918
-0.136020
0.002328
0.452785
-0.351033
0.044268
-0.169177
0.106991
0.077656
-0.128683
-0.201392
0.333995
-0.030592
0.242141
0.239199
0.037439
-0.001958
0.126385
-0.164371
0.045001
0.005160
-0.024141
-0.224279
0.056993
-0.141361
0.007807
-0.006986
-0.035268
-0.019097
-0.024669
-0.025918
-0.421149
0.098741
-0.641028
-0.016238
-0.042792
-0.020784
0.221794
-0.438912
0.141579
0.124131
-0.247215
0.128917
0.072727
0.101344
0.015195
-0.052942
-0.036811
-0.148988
-0.118105
0.102391
-0.152495
-0.076009
0.091354
-0.045477
-0.045273
0.128605
0.221201
-0.037272
-0.276585
0.081559
-0.024380
-0.015065
-0.203386
-0.349682
-0.196355
0.110968
-0.071897
-0.097340
0.220142
0.045850
-0.037888
0.165730
-0.255144
-0.102121
0.078298
-0.133386
0.135971
0.013970
-0.183192
0.092051
0.060574
0.375682
0.131479
-0.103617
0.117097
0.148022
-0.069159
0.239121
-0.238711
-0.141603
0.389558
-0.249580
0.118151
0.311380
0.018384
-0.156023
-0.036685
-0.348068
-0.625734
-0.034388
-0.204449
-0.259894
-0.148354
-0.085620
0.031906
-0.256487
0.301317
0.110633
0.013014
0.057427
0.120539
-0.193398
-0.422816
0.063361
-0.093406
0.127278
-0.179961
-0.123752
-0.490547
0.095879
-0.163902
-0.016791
-0.143567
-0.080824
-0.254169
0.113669
-0.200024
-0.152544
-0.278944
-0.399283
0.174541
0.044305
-0.121646
-0.037646
-0.184901
0.020756
0.208350
-0.224974
0.127069
-0.199959
-0.059378
-0.007828
0.047580
-0.123458
-0.155153
-0.023377
0.138348
0.091672
0.189775
-0.053895
0.053345
0.125206
-0.048732
0.018908
0.283580
-0.065272
-0.235834
-0.271171
0.226205
-0.651444
-0.169145
-0.347655
-0.341302
-0.046526
0.311926
-0.019218
-0.151550
-0.236806
0.128339
-0.053084
0.619013
0.098491
0.125995
0.104870
0.140564
-0.049467
0.050746
-0.032218
-0.215012
0.198660
0.045569
0.158441
0.020042
-0.016348
-0.072420
-0.447144
0.113963
0.750628
-0.067383
-0.079473
-0.123493
0.377797
-0.041562
-0.026162
-0.192886
0.136196
0.151601
-0.008326
-0.038490
-0.330227
-0.284522
-0.137685
-0.387519
-0.169462
-0.166999
0.708966
-0.150949
-0.015046
-0.275590
0.068979
-0.047592
-0.098361
-0.099291
0.156640
0.101096
-0.021901
-0.085797
0.113370
-0.219905
-0.244548
-0.228712
-0.178325
-0.026507
-0.128567
-0.053834
0.101496
-0.025408
0.100692
-0.172395
-0.095629
0.167704
0.084606
0.112516
0.307352
-0.034258
0.350763
0.083880
-0.201564
0.390851
-0.311795
0.151068
-0.340192
-0.254599
0.145973
-0.244723
-0.048390
0.020586
-0.099947
0.190504
-0.131958
-0.501169
-0.055740
0.020624
-0.003773
0.054056
-0.037396
-0.187465
-0.242719
0.027809
0.164380
-0.251833
-0.091473
-0.121567
-0.030245
-0.062874
-0.181708
-0.302119
-0.007094
-0.072101
0.190541
-0.279998
-0.426528
-0.005770
0.280803
0.098960
-0.048041
-0.225040
-0.052951
0.048454
0.049839
0.173312
0.086980
-0.264908
-0.191952
-0.040465
0.051626
0.200001
0.445720
0.027075
-0.160644
-0.222334
0.070839
-0.075788
0.067181
-0.316025
-0.109888
-0.044724
-0.000624
-0.154665
-0.100051
0.027265
0.130518
0.042313
-0.208339
0.072330
-0.125824
-0.067011
0.160462
-0.131019
-0.075022
-0.107526
-0.284206
0.043677
0.093674
-0.043562
-0.053387
0.047771
0.045876
0.182648
0.103085
0.123678
-0.002548
0.009827
-0.121027
-0.052565
0.226613
0.025056
-0.018399
0.123841
0.105370
0.281173
0.012175
0.002992
0.014839
0.092494
0.090127
0.077259
0.083495
-0.059835
-0.080926
0.051636
0.167829
0.017908
-0.082225
0.130525
0.001100
-0.033906
0.050669
-0.031426
0.031119
-0.108788
-0.069854
0.094830
-0.099365
0.061380
0.051158
0.078727
-0.129653
-0.093126
-0.015495
-0.097793
-0.015021
0.007146
0.015428
0.040611
0.022668
-0.100888
-0.118010
-0.106807
0.041976
-0.113760
-0.104936
0.069528
-0.048256
0.103090
-0.071030
-0.085425
0.095729
0.057170
0.109120
-0.047607
0.083730
0.054020
-0.131786
-0.070262
-0.217910
0.054646
0.142879
-0.041088
-0.074083
-0.028456
-0.045369
-0.099115
0.081707
0.062005
0.096674
-0.060226
0.133507
-0.047516
0.036301
-0.025893
-0.100470
0.110883
0.030036
0.061190
0.024478
-0.105151
0.102113
-0.029997
-0.075128
-0.072740
0.025972
0.094323
-0.119990
0.149889
0.114910
0.077345
0.050478
-0.081324
0.023750
-0.112696
0.035981
-0.008018
0.027135
-0.035534
-0.161929
0.068483
0.079860
0.117376
0.073776
0.264751
-0.051055
0.065126
-0.104978
0.053678
0.009462
-0.123358
-0.040943
0.267580
0.114173
0.086343
0.116109
-0.144269
0.140390
-0.046867
0.074165
-0.016190
0.026961
-0.099210
0.133780
0.045994
0.051480
-0.017370
0.036457
-0.017290
0.241062
0.173538
0.075678
0.053441
-0.029132
0.009809
0.006186
0.047432
-0.090068
0.051481
-0.080180
-0.106741
-0.070793
0.037309
-0.128927
0.191049
-0.015029
0.017481
-0.057298
0.092288
0.068566
-0.048394
-0.053266
0.072500
0.008133
0.149947
0.023644
-0.098339
0.063850
0.019875
-0.018006
-0.137665
-0.174791
-0.102526
0.209996
0.057024
-0.080340
0.018099
-0.045533
-0.070210
-0.089945
0.142916
0.103853
0.091702
0.074674
0.028484
0.047606
0.174667
-0.087989
0.031804
0.111993
-0.122783
-0.047057
0.068385
0.161749
0.088392
-0.083749
-0.014126
0.015462
0.000564
0.000761
0.185084
0.089634
-0.036941
-0.062722
0.051250
0.128086
0.018304
0.133693
-0.026049
0.042237
0.179616
0.036623
0.139786
0.024381
-0.023117
0.152574
-0.036523
-0.105638
-0.127996
-0.059260
0.083197
0.005122
-0.070358
0.081198
0.125527
0.024846
0.009846
-0.002491
0.070929
0.195008
0.009694
0.125942
0.011308
0.111029
0.010336
0.086010
-0.062430
-0.080525
-0.012890
0.082393
-0.074795
-0.092568
-0.061725
0.172420
0.051696
0.020470
0.057566
-0.175046
-0.049383
0.046043
-0.022221
-0.013719
0.005701
0.094476
-0.067709
-0.051577
-0.040288
0.004324
-0.020675
-0.049466
-0.069160
-0.000784
0.001575
-0.047633
-0.084480
-0.001486
-0.078527
0.017657
0.045403
-0.080666
0.214965
-0.114483
-0.075048
-0.144179
-0.093392
0.006105
0.045679
-0.079741
0.234382
0.226160
0.092904
-0.093814
0.053123
-0.146095
-0.051546
0.208166
-0.077986
-0.165656
-0.018785
0.000709
-0.026626
0.056143
0.118884
-0.077233
0.091842
-0.082525
0.045427
0.073799
-0.099941
0.027283
-0.111067
-0.075714
-0.079533
0.084648
-0.048141
-0.005996
-0.018349
-0.088105
-0.054083
-0.004596
-0.091485
-0.040519
-0.002654
-0.096500
0.077883
0.018739
-0.116147
0.014719
-0.106240
0.010366
0.386537
-0.020700
0.049233
-0.077930
0.033347
-0.149276
-0.166261
-0.038246
0.039093
-0.048234
-0.140819
0.014350
0.074397
0.036250
0.018702
-0.000547
-0.041284
-0.125747
-0.059585
0.120935
-0.010344
0.032643
-0.086451
-0.106625
-0.053145
-0.130740
0.095617
-0.044923
0.104655
-0.009522
0.060010
-0.122125
-0.129308
-0.131407
-0.114540
-0.062904
0.010206
-0.115165
-0.112439
0.009376
-0.088698
-0.040162
0.022425
0.259818
0.014198
0.055295
0.108257
-0.061228
-0.166462
0.041714
-0.091866
0.053539
-0.120748
-0.050623
0.035583
-0.057726
-0.110204
-0.041448
0.149256
-0.068948
0.142247
0.080743
-0.033892
-0.059642
-0.092597
-0.050747
-0.073212
-0.027357
-0.028952
-0.021119
-0.008571
0.136560
-0.016882
0.059474
-0.027466
-0.007884
0.043844
-0.092185
-0.126201
0.056482
0.099210
0.081928
-0.130527
0.065408
0.104046
0.067158
-0.083177
-0.069481
-0.082519
-0.053975
-0.064210
-0.076976
-0.130891
0.005808
-0.052760
-0.102767
-0.015159
0.002596
-0.063612
-0.055229
0.018618
0.071257
-0.110307
0.052422
0.146016
0.033100
-0.077301
-0.100005
0.234558
0.095776
-0.013403
0.080326
-0.118737
0.072998
0.028850
0.123052
-0.062378
-0.007991
-0.066170
0.014314
0.076548
0.024973
-0.033235
-0.030735
0.020219
-0.053428
-0.054070
-0.015017
-0.113804
0.102513
-0.004610
-0.050752
-0.016370
0.014398
0.046086
-0.083484
-0.076941
0.013277
-0.027668
-0.110013
0.022666
0.084612
-0.085485
-0.003231
-0.011793
-0.143971
-0.019694
0.021821
-0.048998
0.040863
0.039501
0.180631
0.090518
0.084979
-0.114756
0.021193
-0.132148
-0.027989
-0.101558
-0.026390
-0.079274
-0.035566
-0.019183
-0.029775
-0.003104
0.079843
-0.040692
0.048476
-0.103953
-0.151132
-0.053319
-0.073229
-0.037677
0.018963
0.100209
0.053983
0.102769
-0.076037
0.060845
-0.004076
0.085817
-0.042213
-0.055932
-0.065813
-0.132418
0.070648
-0.000374
0.011366
-0.073090
-0.110477
-0.188395
-0.228629
-0.138662
0.066611
0.064756
-0.107814
0.074731
-0.022718
0.366582
-0.148397
0.426799
0.044156
-0.116828
0.098397
-0.076100
-0.194655
0.253878
0.102690
-0.039350
0.045843
0.069967
0.084639
0.080071
0.253101
0.215583
0.001013
0.176298
-0.093100
0.132426
0.271209
0.157879
0.113054
-0.130935
0.117190
-0.093557
-0.151108
0.010921
-0.022033
-0.016961
-0.084371
-0.090762
-0.091482
-0.320516
0.120924
0.115052
-0.154916
0.047213
-0.065698
0.130470
-0.045167
0.014745
-0.178368
-0.017055
-0.076381
0.182821
-0.161316
0.287463
-0.474643
0.480432
-0.248929
-0.268613
-0.070368
-0.188404
-0.082171
0.120811
0.135399
-0.105618
0.511396
-0.023159
-0.097216
-0.279089
-0.447657
-0.084833
0.121491
-0.063826
-0.145235
-0.119451
-0.060094
0.097022
-0.087427
-0.103458
0.229497
0.049604
0.072951
0.040497
0.061890
0.054212
-0.204211
-0.019122
0.017679
0.027005
-0.150027
0.344686
-0.268153
0.048956
-0.013403
0.211152
-0.019037
-0.005505
-0.334580
-0.165089
-0.304159
-0.087518
-0.207153
-0.061064
0.562357
0.328652
0.138836
0.177185
-0.030543
0.043848
-0.046038
0.159368
0.064668
0.313620
-0.021581
-0.219052
-0.205696
-0.046898
0.391662
0.103153
0.561755
0.038696
0.885170
0.028876
-0.012091
0.007279
0.034935
-0.154272
0.451489
-0.227752
-0.156693
-0.120335
0.197924
0.047252
0.028507
0.072422
0.004981
-0.004902
-0.304151
-0.171221
-0.151987
-0.138751
-0.115072
0.006297
0.128345
-0.095753
0.058516
0.005008
0.032523
0.326885
-0.159777
0.153861
-0.076339
-0.092722
0.173332
0.160264
-0.001183
-0.014871
0.026992
-0.094461
0.231070
0.167652
0.075965
0.073992
-0.010754
0.100059
-0.024566
-0.117335
0.034313
-0.101880
0.032058
0.168034
-0.105975
-0.035184
0.027374
-0.017145
-0.028314
-0.063470
0.257865
-0.041066
0.173934
-0.155564
0.146970
-0.325192
-0.092029
-0.116940
0.113522
-0.137040
-0.165561
0.287588
-0.047728
0.042165
0.281118
-0.117527
0.118711
0.328325
-0.200708
0.218278
-0.227556
-0.039167
0.126274
0.002252
0.120268
-0.254760
0.062411
-0.031783
-0.182893
-0.147662
-0.120055
-0.234923
0.177534
0.124728
0.142934
-0.071192
-0.365250
-0.134192
-0.027991
-0.272961
0.133904
0.056511
0.158445
0.185402
-0.183454
-0.042652
-0.045614
-0.136186
-0.082348
0.172160
0.046138
0.153543
0.029912
0.010913
-0.077254
0.330919
0.186546
0.023504
0.193163
0.121136
0.022630
-0.022177
-0.112721
0.193694
0.100618
-0.035210
-0.465841
0.193438
0.124104
0.101824
0.129357
-0.194569
-0.043842
0.098369
-0.136904
0.132773
0.027591
-0.053783
0.062047
0.015686
0.104217
-0.028329
0.019915
-0.054196
0.001727
0.030289
-0.091343
-0.013536
0.054149
-0.139496
-0.034480
-0.125840
-0.103740
0.114156
-0.045688
0.041950
0.066311
-0.138403
0.165948
0.101103
-0.110567
0.179552
-0.120558
0.002327
-0.017212
0.141833
0.096937
0.084761
0.079728
0.102153
-0.004383
0.054601
-0.049883
-0.109556
-0.143264
0.179483
-0.086962
-0.121737
-0.072796
-0.005024
-0.061708
0.027856
-0.051173
-0.085937
-0.067696
0.091948
0.115326
-0.113933
-0.135651
0.133844
0.049232
-0.146285
0.012844
-0.129594
0.061331
-0.046573
-0.038387
0.075532
-0.133914
-0.002284
-0.044582
-0.038437
0.042627
-0.032544
0.033854
0.105698
-0.232879
-0.029635
0.049477
-0.017134
-0.072435
0.129277
-0.058466
0.083920
-0.049655
0.097724
-0.007939
-0.089589
0.046533
-0.000757
0.133580
0.135495
0.145936
0.018028
0.000373
0.060138
0.091311
-0.077127
-0.050479
-0.053356
0.059390
0.073639
0.025201
-0.119016
-0.133064
0.006614
0.131292
0.022601
-0.105041
0.162326
-0.132543
-0.236428
-0.001182
0.210642
0.117870
-0.033929
-0.128431
0.025427
0.100573
0.019777
0.095433
-0.173240
0.007994
-0.008735
0.136673
-0.153431
0.160026
0.096014
0.052478
-0.104475
-0.005553
-0.005655
-0.091376
-0.029862
-0.093455
-0.078850
-0.079768
0.019110
-0.120348
0.054150
0.018378
-0.004602
0.074481
-0.072370
0.085244
0.018585
-0.148579
0.053928
0.067011
0.049280
-0.016588
-0.057442
0.092031
-0.108587
-0.043824
0.093368
-0.077760
-0.040348
-0.011699
-0.043775
-0.051898
-0.007739
0.068027
-0.140200
0.099579
-0.017482
-0.133164
-0.076241
0.072609
-0.083508
0.073294
-0.090182
0.051322
-0.021949
-0.009858
-0.069657
0.049528
0.079414
0.063961
-0.030088
0.021756
0.059109
-0.131365
0.048904
-0.017088
0.134149
-0.067832
-0.044076
-0.023748
0.053023
-0.092701
-0.079722
-0.045686
0.115807
-0.024051
-0.059534
-0.167947
0.019555
-0.071686
-0.123199
-0.061735
-0.085589
0.031474
0.038159
0.184898
-0.125678
-0.029782
-0.042038
-0.074056
-0.216904
-0.062250
0.059001
-0.059610
0.085118
-0.111284
-0.134564
0.043602
0.015538
-0.143212
-0.121647
-0.108843
-0.172682
0.065433
0.015602
0.134038
0.089491
0.111592
-0.156379
0.020784
-0.113146
-0.017027
-0.084036
-0.030815
-0.232804
0.172695
-0.082201
-0.013554
-0.133831
0.094887
-0.061124
-0.053371
-0.199015
-0.022425
0.003616
0.049617
-0.059067
0.015909
0.129708
0.055180
0.011459
0.045530
0.109165
-0.005631
-0.025411
-0.012707
-0.016800
-0.057432
-0.147586
-0.105865
0.109841
-0.064897
0.061290
0.127418
0.030637
0.009678
0.030846
0.267810
0.036780
-0.176955
-0.077107
-0.005289
0.071060
0.044534
-0.097568
0.118359
-0.010299
-0.070063
-0.052040
-0.121663
-0.011032
-0.065001
-0.064675
0.041244
-0.075228
-0.028200
-0.051365
-0.093965
0.005986
0.146182
-0.011974
-0.018295
0.254025
-0.068602
0.008529
0.118394
-0.035980
0.030942
-0.061263
-0.076518
-0.245780
-0.167874
0.017530
-0.022508
-0.009508
0.054517
-0.085533
0.079703
-0.055161
0.094733
-0.062838
-0.048056
0.012617
-0.134645
-0.091489
-0.031384
-0.109507
-0.042155
0.056922
-0.108212
0.022661
-0.070081
-0.105821
-0.018520
0.035827
-0.114048
-0.040683
-0.057969
-0.012301
-0.016864
0.373047
0.065857
-0.067879
-0.033182
-0.021540
-0.025987
0.043107
0.007231
0.047856
0.016403
0.002574
0.042627
-0.012041
0.081659
-0.117467
-0.084315
0.012843
-0.032361
0.023040
0.158552
-0.053682
-0.023721
-0.092279
-0.055950
-0.097238
-0.000637
-0.018899
-0.086722
-0.042133
0.140098
0.034657
-0.028795
-0.105840
-0.024791
0.199688
-0.080043
0.007705
-0.003179
-0.045164
-0.109508
-0.100952
-0.075430
0.011105
-0.044997
0.029004
-0.092597
0.006109
-0.109681
-0.009381
-0.009950
-0.047045
-0.032922
-0.130701
-0.055478
0.041358
-0.137099
-0.094012
0.043331
0.192631
0.163886
0.167649
0.063049
-0.132117
0.056842
0.025548
-0.143849
-0.079715
0.027433
-0.098092
-0.054338
0.057207
-0.069743
-0.048199
0.073632
-0.023945
-0.028218
0.049263
0.015137
0.055167
-0.062933
-0.011141
0.067730
-0.032234
0.012534
-0.105065
-0.025206
-0.096270
-0.039765
-0.100705
0.113880
-0.033121
0.088769
-0.105319
-0.070424
-0.008647
0.045033
-0.076441
-0.000600
0.097157
-0.094969
0.067900
0.057912
-0.083217
-0.135596
0.065952
0.022665
0.046014
-0.014122
0.042399
-0.025568
-0.189816
-0.126349
0.116464
-0.079893
-0.043031
0.081270
0.091441
0.097682
0.049249
-0.085027
0.042279
0.060680
0.041873
0.001149
-0.015790
-0.027595
0.029982
0.001897
-0.161060
0.051798
-0.065669
0.034145
-0.000135
-0.102252
-0.004590
-0.071087
0.061384
0.032537
-0.097320
-0.003554
-0.021487
0.022449
-0.017296
0.071117
-0.079988
-0.081492
-0.038240
-0.071358
-0.004429
-0.128885
-0.098635
0.234438
-0.042080
0.074556
-0.038506
-0.114822
-0.045233
-0.002413
0.056162
-0.112998
-0.021845
0.049784
-0.018538
-0.099730
-0.120645
0.085441
-0.021009
-0.007673
-0.049568
-0.124261
-0.120404
-0.105456
-0.152026
-0.107576
0.095795
-0.050371
-0.034574
-0.000698
